{"learner":{"attributes":{"scikit_learn":"{\"_estimator_type\": \"classifier\"}"},"feature_names":["MonthlyCharges","TotalCharges","gender_Female","gender_Male","Partner_No","Partner_Yes","Dependents_No","Dependents_Yes","SeniorCitizen_0","SeniorCitizen_1","PhoneService_No","PhoneService_Yes","MultipleLines_No","MultipleLines_No phone service","MultipleLines_Yes","InternetService_DSL","InternetService_Fiber optic","InternetService_No","OnlineSecurity_No","OnlineSecurity_No internet service","OnlineSecurity_Yes","OnlineBackup_No","OnlineBackup_No internet service","OnlineBackup_Yes","DeviceProtection_No","DeviceProtection_No internet service","DeviceProtection_Yes","TechSupport_No","TechSupport_No internet service","TechSupport_Yes","StreamingTV_No","StreamingTV_No internet service","StreamingTV_Yes","StreamingMovies_No","StreamingMovies_No internet service","StreamingMovies_Yes","Contract_Month-to-month","Contract_One year","Contract_Two year","PaperlessBilling_No","PaperlessBilling_Yes","PaymentMethod_Bank transfer (automatic)","PaymentMethod_Credit card (automatic)","PaymentMethod_Electronic check","PaymentMethod_Mailed check"],"feature_types":["float","float","float","float","float","float","float","float","float","float","float","float","float","float","float","float","float","float","float","float","float","float","float","float","float","float","float","float","float","float","float","float","float","float","float","float","float","float","float","float","float","float","float","float","float"],"gradient_booster":{"model":{"gbtree_model_param":{"num_parallel_tree":"1","num_trees":"100"},"iteration_indptr":[0,1,2,3,4,5,6,7,8,9,10,11,12,13,14,15,16,17,18,19,20,21,22,23,24,25,26,27,28,29,30,31,32,33,34,35,36,37,38,39,40,41,42,43,44,45,46,47,48,49,50,51,52,53,54,55,56,57,58,59,60,61,62,63,64,65,66,67,68,69,70,71,72,73,74,75,76,77,78,79,80,81,82,83,84,85,86,87,88,89,90,91,92,93,94,95,96,97,98,99,100],"tree_info":[0,0,0,0,0,0,0,0,0,0,0,0,0,0,0,0,0,0,0,0,0,0,0,0,0,0,0,0,0,0,0,0,0,0,0,0,0,0,0,0,0,0,0,0,0,0,0,0,0,0,0,0,0,0,0,0,0,0,0,0,0,0,0,0,0,0,0,0,0,0,0,0,0,0,0,0,0,0,0,0,0,0,0,0,0,0,0,0,0,0,0,0,0,0,0,0,0,0,0,0],"trees":[{"base_weights":[-9.00021E-2,-1.0551679E0,6.9550914E-1,-1.1880115E0,-6.28328E-1,-7.632802E-3,1.2523565E0,-1.25371E-1,-9.411887E-2,-7.6670215E-2,-3.2063242E-2,-4.148988E-2,4.067667E-2,3.747134E-2,1.426799E-1],"categories":[],"categories_nodes":[],"categories_segments":[],"categories_sizes":[],"default_left":[0,0,0,0,0,0,0,0,0,0,0,0,0,0,0],"id":0,"left_children":[1,3,5,7,9,11,13,-1,-1,-1,-1,-1,-1,-1,-1],"loss_changes":[6.521766E2,2.1511536E1,1.857072E2,4.174011E0,3.8226852E0,3.554396E1,4.025461E1,0E0,0E0,0E0,0E0,0E0,0E0,0E0,0E0],"parents":[2147483647,0,0,1,1,2,2,3,3,4,4,5,5,6,6],"right_children":[2,4,6,8,10,12,14,-1,-1,-1,-1,-1,-1,-1,-1],"split_conditions":[1E0,9.43E1,1E0,1E0,1E0,1E0,1E0,-1.25371E-1,-9.411887E-2,-7.6670215E-2,-3.2063242E-2,-4.148988E-2,4.067667E-2,3.747134E-2,1.426799E-1],"split_indices":[36,0,16,18,4,18,18,0,0,0,0,0,0,0,0],"split_type":[0,0,0,0,0,0,0,0,0,0,0,0,0,0,0],"sum_hessian":[8.592387E2,3.8545477E2,4.7378394E2,2.932852E2,9.216957E1,2.0960492E2,2.6417902E2,2.3001967E2,6.3265514E1,6.306339E1,2.910618E1,1.0571203E2,1.0389289E2,4.4063522E1,2.2011548E2],"tree_param":{"num_deleted":"0","num_feature":"45","num_nodes":"15","size_leaf_vector":"1"}},{"base_weights":[-5.8252465E-2,-1.0030898E0,6.537412E-1,-7.922215E-1,-1.1830482E0,8.0963534E-1,-4.0967622E-1,-6.606091E-2,-1.2039103E-1,-1.10391155E-1,-1.3082981E-1,1.0021701E-1,4.4120084E-3,-1.1215647E-1,-3.2093108E-2],"categories":[],"categories_nodes":[],"categories_segments":[],"categories_sizes":[],"default_left":[0,0,0,0,0,0,0,0,0,0,0,0,0,0,0],"id":1,"left_children":[1,3,5,7,9,11,13,-1,-1,-1,-1,-1,-1,-1,-1],"loss_changes":[5.672192E2,1.3280823E1,7.988318E1,8.724091E0,1.2055359E0,6.181436E1,3.7251072E0,0E0,0E0,0E0,0E0,0E0,0E0,0E0,0E0],"parents":[2147483647,0,0,1,1,2,2,3,3,4,4,5,5,6,6],"right_children":[2,4,6,8,10,12,14,-1,-1,-1,-1,-1,-1,-1,-1],"split_conditions":[1E0,1E0,1E0,1E0,1E0,1E0,1E0,-6.606091E-2,-1.2039103E-1,-1.10391155E-1,-1.3082981E-1,1.0021701E-1,4.4120084E-3,-1.1215647E-1,-3.2093108E-2],"split_indices":[36,38,17,17,17,20,12,0,0,0,0,0,0,0,0],"split_type":[0,0,0,0,0,0,0,0,0,0,0,0,0,0,0],"sum_hessian":[8.421878E2,3.6182736E2,4.803604E2,1.6784932E2,1.9397806E2,4.1904834E2,6.1312073E1,1.2817537E2,3.9673946E1,1.2187829E2,7.209977E1,3.347107E2,8.433763E1,6.151049E0,5.5161022E1],"tree_param":{"num_deleted":"0","num_feature":"45","num_nodes":"15","size_leaf_vector":"1"}},{"base_weights":[-5.312917E-2,-5.788469E-1,5.6374264E-1,-3.002175E-1,-1.2296146E0,7.6086336E-1,-8.3755535E-1,-5.417304E-2,2.0345105E-4,-1.2476802E-1,-9.022837E-2,9.3529895E-2,9.375858E-3,-6.575961E-2,-9.516529E-2],"categories":[],"categories_nodes":[],"categories_segments":[],"categories_sizes":[],"default_left":[0,0,0,0,0,0,0,0,0,0,0,0,0,0,0],"id":2,"left_children":[1,3,5,7,9,11,13,-1,-1,-1,-1,-1,-1,-1,-1],"loss_changes":[2.750998E2,8.285341E1,1.0813691E2,2.3456501E1,2.4801636E-1,3.980638E1,6.803589E-1,0E0,0E0,0E0,0E0,0E0,0E0,0E0,0E0],"parents":[2147483647,0,0,1,1,2,2,3,3,4,4,5,5,6,6],"right_children":[2,4,6,8,10,12,14,-1,-1,-1,-1,-1,-1,-1,-1],"split_conditions":[1E0,1E0,1E0,1E0,1E0,1E0,1E0,-5.417304E-2,2.0345105E-4,-1.2476802E-1,-9.022837E-2,9.3529895E-2,9.375858E-3,-6.575961E-2,-9.516529E-2],"split_indices":[16,38,38,21,9,20,20,0,0,0,0,0,0,0,0],"split_type":[0,0,0,0,0,0,0,0,0,0,0,0,0,0,0],"sum_hessian":[8.472838E2,4.574561E2,3.8982773E2,3.2082428E2,1.3663179E2,3.4195358E2,4.787414E1,1.7811015E2,1.4271413E2,1.2815309E2,8.478708E0,2.7091367E2,7.103992E1,1.9887884E1,2.7986258E1],"tree_param":{"num_deleted":"0","num_feature":"45","num_nodes":"15","size_leaf_vector":"1"}},{"base_weights":[-7.500185E-2,-9.319937E-1,4.9092168E-1,-1.0577233E0,-6.1826736E-1,-1.8656772E-1,7.632446E-1,-1.11713864E-1,-6.2436342E-2,-7.596874E-2,-2.5215462E-2,-2.8103834E-2,4.076353E-2,2.154468E-2,9.909326E-2],"categories":[],"categories_nodes":[],"categories_segments":[],"categories_sizes":[],"default_left":[0,0,0,0,0,0,0,0,0,0,0,0,0,0,0],"id":3,"left_children":[1,3,5,7,9,11,13,-1,-1,-1,-1,-1,-1,-1,-1],"loss_changes":[4.088959E2,1.2898926E1,9.376262E1,5.7965393E0,4.9334297E0,8.253017E0,4.5084686E1,0E0,0E0,0E0,0E0,0E0,0E0,0E0,0E0],"parents":[2147483647,0,0,1,1,2,2,3,3,4,4,5,5,6,6],"right_children":[2,4,6,8,10,12,14,-1,-1,-1,-1,-1,-1,-1,-1],"split_conditions":[1E0,1E0,1E0,1.052E2,9.97E1,9.77E1,6.845E1,-1.11713864E-1,-6.2436342E-2,-7.596874E-2,-2.5215462E-2,-2.8103834E-2,4.076353E-2,2.154468E-2,9.909326E-2],"split_indices":[36,18,27,0,0,0,0,0,0,0,0,0,0,0,0],"split_type":[0,0,0,0,0,0,0,0,0,0,0,0,0,0,0],"sum_hessian":[8.4212683E2,3.34803E2,5.0732382E2,2.3816841E2,9.66346E1,1.4550116E2,3.6182266E2,2.0875797E2,2.941044E1,6.932039E1,2.7314213E1,1.2576902E2,1.973214E1,1.0651933E2,2.5530331E2],"tree_param":{"num_deleted":"0","num_feature":"45","num_nodes":"15","size_leaf_vector":"1"}},{"base_weights":[-5.6434203E-2,-6.667161E-1,4.5069343E-1,2.998264E-1,-7.4621207E-1,1.0457273E0,-1.16785154E-1,5.0629256E-3,7.997089E-2,-8.9164704E-2,-1.8450508E-2,1.4850073E-1,4.398934E-2,-4.619433E-2,3.109379E-2],"categories":[],"categories_nodes":[],"categories_segments":[],"categories_sizes":[],"default_left":[0,0,0,0,0,0,0,0,0,0,0,0,0,0,0],"id":4,"left_children":[1,3,5,7,9,11,13,-1,-1,-1,-1,-1,-1,-1,-1],"loss_changes":[2.5864914E2,2.9253448E1,1.5419705E2,3.6146908E0,2.8557968E1,5.8987457E1,3.4631763E1,0E0,0E0,0E0,0E0,0E0,0E0,0E0,0E0],"parents":[2147483647,0,0,1,1,2,2,3,3,4,4,5,5,6,6],"right_children":[2,4,6,8,10,12,14,-1,-1,-1,-1,-1,-1,-1,-1],"split_conditions":[1E0,5.92E1,1.184E3,1E0,1E0,1E0,1E0,5.0629256E-3,7.997089E-2,-8.9164704E-2,-1.8450508E-2,1.4850073E-1,4.398934E-2,-4.619433E-2,3.109379E-2],"split_indices":[27,1,1,40,43,15,43,0,0,0,0,0,0,0,0],"split_type":[0,0,0,0,0,0,0,0,0,0,0,0,0,0,0],"sum_hessian":[8.347394E2,3.7876855E2,4.559708E2,2.8680023E1,3.5008853E2,2.2237573E2,2.3359506E2,1.9506466E1,9.173557E0,2.7785397E2,7.223456E1,1.2848662E2,9.3889114E1,1.2925256E2,1.0434249E2],"tree_param":{"num_deleted":"0","num_feature":"45","num_nodes":"15","size_leaf_vector":"1"}},{"base_weights":[-5.2799534E-2,-8.088195E-1,4.0693864E-1,-1.032033E0,-5.4515606E-1,-3.263635E-2,7.1259737E-1,-1.0954372E-1,-6.9598876E-2,-9.4502635E-2,-1.0829369E-2,4.6687927E-2,-1.7579095E-2,3.7202984E-2,9.02641E-2],"categories":[],"categories_nodes":[],"categories_segments":[],"categories_sizes":[],"default_left":[0,0,0,0,0,0,0,0,0,0,0,0,0,0,0],"id":5,"left_children":[1,3,5,7,9,11,13,-1,-1,-1,-1,-1,-1,-1,-1],"loss_changes":[2.830556E2,1.7842346E1,6.805982E1,3.1600647E0,2.4796627E1,1.4929296E1,1.9168488E1,0E0,0E0,0E0,0E0,0E0,0E0,0E0,0E0],"parents":[2147483647,0,0,1,1,2,2,3,3,4,4,5,5,6,6],"right_children":[2,4,6,8,10,12,14,-1,-1,-1,-1,-1,-1,-1,-1],"split_conditions":[1E0,1E0,1E0,1E0,1E0,1E0,1E0,-1.0954372E-1,-6.9598876E-2,-9.4502635E-2,-1.0829369E-2,4.6687927E-2,-1.7579095E-2,3.7202984E-2,9.02641E-2],"split_indices":[36,35,16,18,37,11,43,0,0,0,0,0,0,0,0],"split_type":[0,0,0,0,0,0,0,0,0,0,0,0,0,0,0],"sum_hessian":[8.1340814E2,3.0744623E2,5.059619E2,1.657054E2,1.4174081E2,2.0770421E2,2.982577E2,1.3845255E2,2.7252857E1,7.369994E1,6.804087E1,4.601419E1,1.6169002E2,1.0735356E2,1.9090414E2],"tree_param":{"num_deleted":"0","num_feature":"45","num_nodes":"15","size_leaf_vector":"1"}},{"base_weights":[-7.0637465E-2,-8.302519E-1,3.5444716E-1,-9.4482195E-1,-5.4670596E-1,-1.6716816E-1,5.449472E-1,-1.11284494E-1,-8.264794E-2,-4.081792E-2,-8.806493E-2,-3.315076E-2,1.2641071E-2,6.801162E-2,2.1085614E-2],"categories":[],"categories_nodes":[],"categories_segments":[],"categories_sizes":[],"default_left":[0,0,0,0,0,0,0,0,0,0,0,0,0,0,0],"id":6,"left_children":[1,3,5,7,9,11,13,-1,-1,-1,-1,-1,-1,-1,-1],"loss_changes":[2.602721E2,9.13681E0,5.140715E1,3.6221924E0,3.7252712E0,6.710619E0,1.7031181E1,0E0,0E0,0E0,0E0,0E0,0E0,0E0,0E0],"parents":[2147483647,0,0,1,1,2,2,3,3,4,4,5,5,6,6],"right_children":[2,4,6,8,10,12,14,-1,-1,-1,-1,-1,-1,-1,-1],"split_conditions":[1E0,1E0,1E0,1E0,1E0,1E0,1E0,-1.11284494E-1,-8.264794E-2,-4.081792E-2,-8.806493E-2,-3.315076E-2,1.2641071E-2,6.801162E-2,2.1085614E-2],"split_indices":[36,18,27,20,42,21,15,0,0,0,0,0,0,0,0],"split_type":[0,0,0,0,0,0,0,0,0,0,0,0,0,0,0],"sum_hessian":[8.0508875E2,2.8870477E2,5.16384E2,2.0479062E2,8.391413E1,1.3815576E2,3.782282E2,8.289476E1,1.2189587E2,6.0096138E1,2.3817997E1,8.853249E1,4.962326E1,2.6891202E2,1.09316216E2],"tree_param":{"num_deleted":"0","num_feature":"45","num_nodes":"15","size_leaf_vector":"1"}},{"base_weights":[-2.6653344E-2,-7.692767E-1,3.7271678E-1,-9.998301E-1,-5.172257E-1,-1.497538E-1,5.761388E-1,-1.0722996E-1,-6.262725E-2,-8.051162E-2,-2.373479E-2,6.634101E-2,-2.4940113E-2,1.4389732E-1,3.7532486E-2],"categories":[],"categories_nodes":[],"categories_segments":[],"categories_sizes":[],"default_left":[0,0,0,0,0,0,0,0,0,0,0,0,0,0,0],"id":7,"left_children":[1,3,5,7,9,11,13,-1,-1,-1,-1,-1,-1,-1,-1],"loss_changes":[2.3444954E2,1.5805939E1,5.4680412E1,3.5583038E0,1.0628963E1,1.1788316E1,6.385994E1,0E0,0E0,0E0,0E0,0E0,0E0,0E0,0E0],"parents":[2147483647,0,0,1,1,2,2,3,3,4,4,5,5,6,6],"right_children":[2,4,6,8,10,12,14,-1,-1,-1,-1,-1,-1,-1,-1],"split_conditions":[1E0,1E0,1E0,1E0,1E0,2.425E1,1.1825E2,-1.0722996E-1,-6.262725E-2,-8.051162E-2,-2.373479E-2,6.634101E-2,-2.4940113E-2,1.4389732E-1,3.7532486E-2],"split_indices":[36,32,27,18,37,1,1,0,0,0,0,0,0,0,0],"split_type":[0,0,0,0,0,0,0,0,0,0,0,0,0,0,0],"sum_hessian":[7.8952277E2,2.7594452E2,5.1357825E2,1.4334349E2,1.3260104E2,1.4396063E2,3.6961758E2,1.19270065E2,2.4073418E1,6.490229E1,6.7698746E1,1.5406702E1,1.2855394E2,6.9200775E1,3.004168E2],"tree_param":{"num_deleted":"0","num_feature":"45","num_nodes":"15","size_leaf_vector":"1"}},{"base_weights":[-4.998191E-2,-4.534164E-1,3.484995E-1,2.8972915E-1,-7.264129E-1,1.000434E0,-1.4212294E-1,-2.1632878E-2,7.361222E-2,-8.866456E-2,-4.4756074E-2,8.5084505E-2,1.5435043E-1,-1.991596E-3,-7.3393606E-2],"categories":[],"categories_nodes":[],"categories_segments":[],"categories_sizes":[],"default_left":[0,0,0,0,0,0,0,0,0,0,0,0,0,0,0],"id":8,"left_children":[1,3,5,7,9,11,13,-1,-1,-1,-1,-1,-1,-1,-1],"loss_changes":[1.2609789E2,7.917435E1,1.2630075E2,2.3813913E1,1.2543594E1,1.3115265E1,1.6310438E1,0E0,0E0,0E0,0E0,0E0,0E0,0E0,0E0],"parents":[2147483647,0,0,1,1,2,2,3,3,4,4,5,5,6,6],"right_children":[2,4,6,8,10,12,14,-1,-1,-1,-1,-1,-1,-1,-1],"split_conditions":[1E0,2.2565E2,1.5931E3,1E0,1E0,9.085E1,6.66945E3,-2.1632878E-2,7.361222E-2,-8.866456E-2,-4.4756074E-2,8.5084505E-2,1.5435043E-1,-1.991596E-3,-7.3393606E-2],"split_indices":[16,1,1,15,24,0,1,0,0,0,0,0,0,0,0],"split_type":[0,0,0,0,0,0,0,0,0,0,0,0,0,0,0],"sum_hessian":[7.833889E2,3.8924088E2,3.9414804E2,1.04565125E2,2.8467575E2,1.6902698E2,2.2512105E2,4.9128174E1,5.543695E1,1.8009856E2,1.04577194E2,1.3352954E2,3.549744E1,1.8701918E2,3.810187E1],"tree_param":{"num_deleted":"0","num_feature":"45","num_nodes":"15","size_leaf_vector":"1"}},{"base_weights":[-7.449987E-2,-4.622867E-1,2.9169315E-1,-6.789201E-1,-1.4000197E-1,-2.4260432E-2,4.8796165E-1,-5.802433E-2,-9.566274E-2,-2.6797026E-2,8.5715204E-2,9.001511E-3,-4.181264E-2,5.7893377E-2,-9.176864E-3],"categories":[],"categories_nodes":[],"categories_segments":[],"categories_sizes":[],"default_left":[0,0,0,0,0,0,0,0,0,0,0,0,0,0,0],"id":9,"left_children":[1,3,5,7,9,11,13,-1,-1,-1,-1,-1,-1,-1,-1],"loss_changes":[1.11143776E2,2.6489677E1,2.4972355E1,5.947769E0,1.9691742E1,6.9837313E0,1.3125122E1,0E0,0E0,0E0,0E0,0E0,0E0,0E0,0E0],"parents":[2147483647,0,0,1,1,2,2,3,3,4,4,5,5,6,6],"right_children":[2,4,6,8,10,12,14,-1,-1,-1,-1,-1,-1,-1,-1],"split_conditions":[1E0,1E0,1E0,1E0,1E0,1E0,1E0,-5.802433E-2,-9.566274E-2,-2.6797026E-2,8.5715204E-2,9.001511E-3,-4.181264E-2,5.7893377E-2,-9.176864E-3],"split_indices":[16,21,21,14,9,7,42,0,0,0,0,0,0,0,0],"split_type":[0,0,0,0,0,0,0,0,0,0,0,0,0,0,0],"sum_hessian":[7.817013E2,3.7959302E2,4.0210828E2,2.26674E2,1.5291902E2,1.5424402E2,2.4786424E2,1.683865E2,5.8287495E1,1.3585048E2,1.706854E1,1.1985518E2,3.4388832E1,2.1424525E2,3.361899E1],"tree_param":{"num_deleted":"0","num_feature":"45","num_nodes":"15","size_leaf_vector":"1"}},{"base_weights":[-5.7499353E-2,-4.992068E-1,2.4571873E-1,-7.4879414E-1,-3.6068678E-1,4.0986916E-1,-3.1993762E-1,-9.230604E-2,-5.4983526E-2,-5.3363074E-2,-2.10718E-2,3.3125754E-3,5.3979106E-2,-4.8493426E-2,-1.348261E-2],"categories":[],"categories_nodes":[],"categories_segments":[],"categories_sizes":[],"default_left":[0,0,0,0,0,0,0,0,0,0,0,0,0,0,0],"id":10,"left_children":[1,3,5,7,9,11,13,-1,-1,-1,-1,-1,-1,-1,-1],"loss_changes":[1.0009231E2,1.0381126E1,4.1217445E1,3.494213E0,5.042204E0,1.6815662E1,3.0205383E0,0E0,0E0,0E0,0E0,0E0,0E0,0E0,0E0],"parents":[2147483647,0,0,1,1,2,2,3,3,4,4,5,5,6,6],"right_children":[2,4,6,8,10,12,14,-1,-1,-1,-1,-1,-1,-1,-1],"split_conditions":[1E0,1E0,1E0,1E0,1E0,1E0,1E0,-9.230604E-2,-5.4983526E-2,-5.3363074E-2,-2.10718E-2,3.3125754E-3,5.3979106E-2,-4.8493426E-2,-1.348261E-2],"split_indices":[27,6,20,40,40,40,4,0,0,0,0,0,0,0,0],"split_type":[0,0,0,0,0,0,0,0,0,0,0,0,0,0,0],"sum_hessian":[7.4636945E2,3.0367426E2,4.4269516E2,1.0759864E2,1.9607562E2,3.4322952E2,9.9465645E1,5.6388634E1,5.1210007E1,9.046838E1,1.0560724E2,8.817369E1,2.5505582E2,5.2161953E1,4.730369E1],"tree_param":{"num_deleted":"0","num_feature":"45","num_nodes":"15","size_leaf_vector":"1"}},{"base_weights":[-9.763532E-3,-6.6334677E-1,2.9790506E-1,-8.242045E-1,-1.05760984E-1,4.2785417E-2,4.6959946E-1,-9.324282E-2,-6.32052E-2,3.68829E-2,-3.579801E-2,1.7663633E-2,-6.0931038E-2,1.2458662E-2,5.6213673E-2],"categories":[],"categories_nodes":[],"categories_segments":[],"categories_sizes":[],"default_left":[0,0,0,0,0,0,0,0,0,0,0,0,0,0,0],"id":11,"left_children":[1,3,5,7,9,11,13,-1,-1,-1,-1,-1,-1,-1,-1],"loss_changes":[1.5236145E2,2.1707779E1,2.2556442E1,3.6177902E0,6.6341586E0,1.8190811E1,9.794914E0,0E0,0E0,0E0,0E0,0E0,0E0,0E0,0E0],"parents":[2147483647,0,0,1,1,2,2,3,3,4,4,5,5,6,6],"right_children":[2,4,6,8,10,12,14,-1,-1,-1,-1,-1,-1,-1,-1],"split_conditions":[1E0,9.97E1,1E0,1E0,1E0,5.86E1,1E0,-9.324282E-2,-6.32052E-2,3.68829E-2,-3.579801E-2,1.7663633E-2,-6.0931038E-2,1.2458662E-2,5.6213673E-2],"split_indices":[36,0,16,35,5,0,40,0,0,0,0,0,0,0,0],"split_type":[0,0,0,0,0,0,0,0,0,0,0,0,0,0,0],"sum_hessian":[7.566977E2,2.4201178E2,5.146859E2,1.876404E2,5.437139E1,2.0729384E2,3.0739206E2,1.188025E2,6.88379E1,1.8787876E1,3.5583515E1,1.7229308E2,3.5000767E1,6.525832E1,2.4213373E2],"tree_param":{"num_deleted":"0","num_feature":"45","num_nodes":"15","size_leaf_vector":"1"}},{"base_weights":[-1.2605899E-2,1.3620715E-1,-8.4592825E-1,2.916265E-1,-1.8586709E-1,-9.7905254E-1,-4.9143866E-1,-6.483911E-3,4.1303623E-2,-7.707198E-3,-5.3335834E-2,-1.0970354E-1,-9.101971E-2,-2.828528E-2,-7.684045E-2],"categories":[],"categories_nodes":[],"categories_segments":[],"categories_sizes":[],"default_left":[0,0,0,0,0,0,0,0,0,0,0,0,0,0,0],"id":12,"left_children":[1,3,5,7,9,11,13,-1,-1,-1,-1,-1,-1,-1,-1],"loss_changes":[9.414108E1,3.2271362E1,5.1875763E0,1.8825844E1,7.9175053E0,1.7595673E-1,1.7635155E0,0E0,0E0,0E0,0E0,0E0,0E0,0E0,0E0],"parents":[2147483647,0,0,1,1,2,2,3,3,4,4,5,5,6,6],"right_children":[2,4,6,8,10,12,14,-1,-1,-1,-1,-1,-1,-1,-1],"split_conditions":[1E0,1E0,9.22E1,1E0,1E0,2.45E1,1.091E2,-6.483911E-3,4.1303623E-2,-7.707198E-3,-5.3335834E-2,-1.0970354E-1,-9.101971E-2,-2.828528E-2,-7.684045E-2],"split_indices":[38,39,0,18,37,0,0,0,0,0,0,0,0,0,0],"split_type":[0,0,0,0,0,0,0,0,0,0,0,0,0,0,0],"sum_hessian":[7.581811E2,6.4365643E2,1.1452461E2,4.3418463E2,2.0947182E2,8.261763E1,3.190698E1,1.103688E2,3.2381586E2,1.5999142E2,4.9480385E1,2.7695498E1,5.4922134E1,1.8776688E1,1.3130293E1],"tree_param":{"num_deleted":"0","num_feature":"45","num_nodes":"15","size_leaf_vector":"1"}},{"base_weights":[-9.441308E-3,-5.683223E-1,2.3345459E-1,-7.1749187E-1,1.9119391E-3,6.468562E-1,-1.3502515E-2,-9.259974E-2,-5.3728588E-2,-5.1956903E-2,4.9726874E-2,9.57583E-2,1.9447686E-2,-5.425449E-2,2.2830632E-2],"categories":[],"categories_nodes":[],"categories_segments":[],"categories_sizes":[],"default_left":[0,0,0,0,0,0,0,0,0,0,0,0,0,0,0],"id":13,"left_children":[1,3,5,7,9,11,13,-1,-1,-1,-1,-1,-1,-1,-1],"loss_changes":[1.0278682E2,1.9512321E1,5.388948E1,6.5829773E0,1.2544386E1,2.7654175E1,4.2394367E1,0E0,0E0,0E0,0E0,0E0,0E0,0E0,0E0],"parents":[2147483647,0,0,1,1,2,2,3,3,4,4,5,5,6,6],"right_children":[2,4,6,8,10,12,14,-1,-1,-1,-1,-1,-1,-1,-1],"split_conditions":[1E0,1.0235E2,3.5155E2,1E0,1E0,1E0,7.385E1,-9.259974E-2,-5.3728588E-2,-5.1956903E-2,4.9726874E-2,9.57583E-2,1.9447686E-2,-5.425449E-2,2.2830632E-2],"split_indices":[36,0,1,37,37,39,0,0,0,0,0,0,0,0,0],"split_type":[0,0,0,0,0,0,0,0,0,0,0,0,0,0,0],"sum_hessian":[7.561893E2,2.2888232E2,5.2730695E2,1.8132083E2,4.756149E1,1.9689638E2,3.3041055E2,8.310072E1,9.822011E1,2.3157873E1,2.4403614E1,1.16391754E2,8.050463E1,1.0345164E2,2.2695892E2],"tree_param":{"num_deleted":"0","num_feature":"45","num_nodes":"15","size_leaf_vector":"1"}},{"base_weights":[-2.4064844E-2,-5.611672E-1,2.0657462E-1,-7.5225407E-1,-2.1028629E-1,6.637527E-1,1.8305486E-2,-8.590051E-2,-2.7330741E-2,-4.2818863E-2,6.9011594E-3,2.1510746E-2,9.0594135E-2,-3.6423694E-2,2.2516798E-2],"categories":[],"categories_nodes":[],"categories_segments":[],"categories_sizes":[],"default_left":[0,0,0,0,0,0,0,0,0,0,0,0,0,0,0],"id":14,"left_children":[1,3,5,7,9,11,13,-1,-1,-1,-1,-1,-1,-1,-1],"loss_changes":[8.968375E1,1.4503006E1,4.3591476E1,7.071739E0,4.7237825E0,1.5954643E1,2.8472893E1,0E0,0E0,0E0,0E0,0E0,0E0,0E0,0E0],"parents":[2147483647,0,0,1,1,2,2,3,3,4,4,5,5,6,6],"right_children":[2,4,6,8,10,12,14,-1,-1,-1,-1,-1,-1,-1,-1],"split_conditions":[1E0,1E0,2.2565E2,1.015E2,9.52E1,3.075E1,7.385E1,-8.590051E-2,-2.7330741E-2,-4.2818863E-2,6.9011594E-3,2.1510746E-2,9.0594135E-2,-3.6423694E-2,2.2516798E-2],"split_indices":[36,18,1,0,0,0,0,0,0,0,0,0,0,0,0],"split_type":[0,0,0,0,0,0,0,0,0,0,0,0,0,0,0],"sum_hessian":[7.230063E2,2.1698509E2,5.060212E2,1.4011023E2,7.687486E1,1.4723193E2,3.5878928E2,1.1424888E2,2.5861355E1,4.3034054E1,3.384081E1,5.1946728E1,9.52852E1,1.25790184E2,2.3299908E2],"tree_param":{"num_deleted":"0","num_feature":"45","num_nodes":"15","size_leaf_vector":"1"}},{"base_weights":[-8.04589E-2,4.139954E-1,-2.3719636E-1,-1.3273348E-1,7.0173645E-1,-5.656228E-1,-8.40353E-2,5.104172E-2,-4.283736E-2,9.050339E-2,4.9926367E-2,-6.845129E-2,-3.8202383E-2,2.4000144E-2,-2.3509746E-2],"categories":[],"categories_nodes":[],"categories_segments":[],"categories_sizes":[],"default_left":[0,0,0,0,0,0,0,0,0,0,0,0,0,0,0],"id":15,"left_children":[1,3,5,7,9,11,13,-1,-1,-1,-1,-1,-1,-1,-1],"loss_changes":[5.4959637E1,2.6903603E1,2.7054262E1,1.1382398E1,4.381439E0,3.6043205E0,1.8026766E1,0E0,0E0,0E0,0E0,0E0,0E0,0E0,0E0],"parents":[2147483647,0,0,1,1,2,2,3,3,4,4,5,5,6,6],"right_children":[2,4,6,8,10,12,14,-1,-1,-1,-1,-1,-1,-1,-1],"split_conditions":[2.732E2,1E0,1E0,2.425E1,1E0,1E0,1.23765E3,5.104172E-2,-4.283736E-2,9.050339E-2,4.9926367E-2,-6.845129E-2,-3.8202383E-2,2.4000144E-2,-2.3509746E-2],"split_indices":[1,18,40,1,15,14,1,0,0,0,0,0,0,0,0],"split_type":[0,0,0,0,0,0,0,0,0,0,0,0,0,0,0],"sum_hessian":[7.080276E2,1.7021992E2,5.378077E2,5.8787933E1,1.11432E2,1.7061273E2,3.6719492E2,1.8398863E1,4.0389072E1,5.4737057E1,5.669494E1,1.0272723E2,6.7885506E1,1.16659485E2,2.5053545E2],"tree_param":{"num_deleted":"0","num_feature":"45","num_nodes":"15","size_leaf_vector":"1"}},{"base_weights":[4.1395775E-3,-4.9233112E-1,2.0057642E-1,-7.775831E-1,-2.4036285E-1,2.8888994E-1,-3.2899335E-1,-6.408335E-2,-9.093686E-2,-6.5241806E-2,7.1785264E-3,1.1660662E-2,6.7394204E-2,-7.5754607E-3,-9.224721E-2],"categories":[],"categories_nodes":[],"categories_segments":[],"categories_sizes":[],"default_left":[0,0,0,0,0,0,0,0,0,0,0,0,0,0,0],"id":16,"left_children":[1,3,5,7,9,11,13,-1,-1,-1,-1,-1,-1,-1,-1],"loss_changes":[6.918915E1,1.4362484E1,2.3820505E1,1.4046326E0,1.3852623E1,2.8879364E1,1.0919356E1,0E0,0E0,0E0,0E0,0E0,0E0,0E0,0E0],"parents":[2147483647,0,0,1,1,2,2,3,3,4,4,5,5,6,6],"right_children":[2,4,6,8,10,12,14,-1,-1,-1,-1,-1,-1,-1,-1],"split_conditions":[1E0,1E0,3.32705E3,1E0,1E0,1E0,1E0,-6.408335E-2,-9.093686E-2,-6.5241806E-2,7.1785264E-3,1.1660662E-2,6.7394204E-2,-7.5754607E-3,-9.224721E-2],"split_indices":[36,35,1,19,37,35,30,0,0,0,0,0,0,0,0],"split_type":[0,0,0,0,0,0,0,0,0,0,0,0,0,0,0],"sum_hessian":[7.0844305E2,2.006276E2,5.078155E2,9.360961E1,1.0701798E2,4.3542862E2,7.238686E1,4.7378155E1,4.6231453E1,4.589226E1,6.1125725E1,3.012791E2,1.3414949E2,5.113238E1,2.1254482E1],"tree_param":{"num_deleted":"0","num_feature":"45","num_nodes":"15","size_leaf_vector":"1"}},{"base_weights":[-1.8292025E-2,-3.7174234E-1,1.9187379E-1,-6.443933E-1,-1.5213473E-1,2.6262608E-1,-2.1468459E-1,-8.256327E-2,-2.1904958E-2,-2.6376996E-2,1.9573333E-2,3.5674497E-2,-1.0077829E-2,-3.2939983E-3,-4.5960385E-2],"categories":[],"categories_nodes":[],"categories_segments":[],"categories_sizes":[],"default_left":[0,0,0,0,0,0,0,0,0,0,0,0,0,0,0],"id":17,"left_children":[1,3,5,7,9,11,13,-1,-1,-1,-1,-1,-1,-1,-1],"loss_changes":[5.2924263E1,1.5857788E1,1.2881073E1,9.034061E0,5.7654696E0,1.3043123E1,2.9529033E0,0E0,0E0,0E0,0E0,0E0,0E0,0E0,0E0],"parents":[2147483647,0,0,1,1,2,2,3,3,4,4,5,5,6,6],"right_children":[2,4,6,8,10,12,14,-1,-1,-1,-1,-1,-1,-1,-1],"split_conditions":[1E0,1E0,1E0,1E0,1E0,1E0,1E0,-8.256327E-2,-2.1904958E-2,-2.6376996E-2,1.9573333E-2,3.5674497E-2,-1.0077829E-2,-3.2939983E-3,-4.5960385E-2],"split_indices":[18,36,42,16,32,29,5,0,0,0,0,0,0,0,0],"split_type":[0,0,0,0,0,0,0,0,0,0,0,0,0,0,0],"sum_hessian":[7.1148615E2,2.6516147E2,4.463247E2,1.17863014E2,1.4729846E2,3.8031628E2,6.600842E1,8.2317085E1,3.5545933E1,1.1160416E2,3.56943E1,3.020872E2,7.822908E1,3.821665E1,2.7791773E1],"tree_param":{"num_deleted":"0","num_feature":"45","num_nodes":"15","size_leaf_vector":"1"}},{"base_weights":[-1.842888E-2,4.1448846E-1,-1.9316305E-1,6.5555596E-1,-2.6047063E-1,-5.8682734E-1,-6.3553243E-3,9.0142444E-2,3.909943E-2,3.921858E-2,-6.253042E-2,-9.551977E-2,-5.006057E-2,3.238478E-2,-3.498604E-2],"categories":[],"categories_nodes":[],"categories_segments":[],"categories_sizes":[],"default_left":[0,0,0,0,0,0,0,0,0,0,0,0,0,0,0],"id":18,"left_children":[1,3,5,7,9,11,13,-1,-1,-1,-1,-1,-1,-1,-1],"loss_changes":[5.318883E1,3.2985046E1,3.6834587E1,9.524155E0,1.2878074E1,4.8807526E0,3.8645485E1,0E0,0E0,0E0,0E0,0E0,0E0,0E0,0E0],"parents":[2147483647,0,0,1,1,2,2,3,3,4,4,5,5,6,6],"right_children":[2,4,6,8,10,12,14,-1,-1,-1,-1,-1,-1,-1,-1],"split_conditions":[3.4135E2,1E0,6.99E1,9.61E1,2.425E1,2.4E1,3.08875E3,9.0142444E-2,3.909943E-2,3.921858E-2,-6.253042E-2,-9.551977E-2,-5.006057E-2,3.238478E-2,-3.498604E-2],"split_indices":[1,17,0,1,1,0,1,0,0,0,0,0,0,0,0],"split_type":[0,0,0,0,0,0,0,0,0,0,0,0,0,0,0],"sum_hessian":[7.0210406E2,2.0169734E2,5.0040674E2,1.4862796E2,5.3069386E1,1.6069652E2,3.3971024E2,7.641169E1,7.221626E1,1.901524E1,3.4054146E1,2.9523243E1,1.3117328E2,1.7322339E2,1.6648685E2],"tree_param":{"num_deleted":"0","num_feature":"45","num_nodes":"15","size_leaf_vector":"1"}},{"base_weights":[1.9809986E-3,-3.0528757E-1,1.8102086E-1,-4.0896606E-1,7.211895E-2,3.131563E-1,-7.2542414E-2,4.9159387E-3,-4.549647E-2,4.055921E-2,-1.3251736E-2,1.8960677E-2,4.958737E-2,-1.9129692E-2,2.2487707E-2],"categories":[],"categories_nodes":[],"categories_segments":[],"categories_sizes":[],"default_left":[0,0,0,0,0,0,0,0,0,0,0,0,0,0,0],"id":19,"left_children":[1,3,5,7,9,11,13,-1,-1,-1,-1,-1,-1,-1,-1],"loss_changes":[3.8318558E1,1.0048868E1,1.4756531E1,4.252102E0,3.8271837E0,6.4864693E0,5.3610344E0,0E0,0E0,0E0,0E0,0E0,0E0,0E0,0E0],"parents":[2147483647,0,0,1,1,2,2,3,3,4,4,5,5,6,6],"right_children":[2,4,6,8,10,12,14,-1,-1,-1,-1,-1,-1,-1,-1],"split_conditions":[1E0,9.155E1,1E0,1E0,1E0,1E0,9.925E1,4.9159387E-3,-4.549647E-2,4.055921E-2,-1.3251736E-2,1.8960677E-2,4.958737E-2,-1.9129692E-2,2.2487707E-2],"split_indices":[18,0,23,8,23,32,0,0,0,0,0,0,0,0,0],"split_type":[0,0,0,0,0,0,0,0,0,0,0,0,0,0,0],"sum_hessian":[6.955301E2,2.5593733E2,4.3959277E2,2.0074756E2,5.5189774E1,2.8891666E2,1.5067612E2,1.8314016E1,1.8243355E2,2.0801258E1,3.4388515E1,1.7297414E2,1.1594251E2,1.0780846E2,4.2867657E1],"tree_param":{"num_deleted":"0","num_feature":"45","num_nodes":"15","size_leaf_vector":"1"}},{"base_weights":[3.273155E-3,5.155908E-1,-1.13716416E-1,3.234824E-1,8.8936377E-1,-2.725027E-2,-6.723782E-1,1.2609299E-1,2.2054307E-2,1.4565481E-1,7.597474E-2,-2.3670848E-2,1.9023068E-2,-8.065009E-2,-4.05883E-2],"categories":[],"categories_nodes":[],"categories_segments":[],"categories_sizes":[],"default_left":[0,0,0,0,0,0,0,0,0,0,0,0,0,0,0],"id":20,"left_children":[1,3,5,7,9,11,13,-1,-1,-1,-1,-1,-1,-1,-1],"loss_changes":[4.1543766E1,9.108589E0,2.724921E1,8.149994E0,2.6416168E0,2.2306326E1,2.5388832E0,0E0,0E0,0E0,0E0,0E0,0E0,0E0,0E0],"parents":[2147483647,0,0,1,1,2,2,3,3,4,4,5,5,6,6],"right_children":[2,4,6,8,10,12,14,-1,-1,-1,-1,-1,-1,-1,-1],"split_conditions":[1.5035E2,6.135E1,1E0,1E0,6.99E1,8.085E1,9.35E1,1.2609299E-1,2.2054307E-2,1.4565481E-1,7.597474E-2,-2.3670848E-2,1.9023068E-2,-8.065009E-2,-4.05883E-2],"split_indices":[1,0,38,8,0,0,0,0,0,0,0,0,0,0,0],"split_type":[0,0,0,0,0,0,0,0,0,0,0,0,0,0,0],"sum_hessian":[6.921485E2,1.2835521E2,5.637933E2,8.539658E1,4.295862E1,4.8868246E2,7.51108E1,7.892904E0,7.750368E1,7.0388484E0,3.591977E1,2.489102E2,2.3977226E2,4.9290516E1,2.5820288E1],"tree_param":{"num_deleted":"0","num_feature":"45","num_nodes":"15","size_leaf_vector":"1"}},{"base_weights":[-9.492245E-3,-2.1919166E-1,2.610296E-1,3.8702298E-2,-4.8472333E-1,6.0133874E-1,6.0151733E-2,-1.3866775E-2,6.498553E-2,-6.337079E-2,-4.7259927E-3,2.6648024E-2,7.440006E-2,-4.134939E-2,1.8055977E-2],"categories":[],"categories_nodes":[],"categories_segments":[],"categories_sizes":[],"default_left":[0,0,0,0,0,0,0,0,0,0,0,0,0,0,0],"id":21,"left_children":[1,3,5,7,9,11,13,-1,-1,-1,-1,-1,-1,-1,-1],"loss_changes":[3.9108006E1,2.6602596E1,2.056162E1,2.1450508E1,1.245789E1,5.2363243E0,1.0865162E1,0E0,0E0,0E0,0E0,0E0,0E0,0E0,0E0],"parents":[2147483647,0,0,1,1,2,2,3,3,4,4,5,5,6,6],"right_children":[2,4,6,8,10,12,14,-1,-1,-1,-1,-1,-1,-1,-1],"split_conditions":[1E0,1.23765E3,5.2835E2,7.07E1,9.95E1,1E0,1E0,-1.3866775E-2,6.498553E-2,-6.337079E-2,-4.7259927E-3,2.6648024E-2,7.440006E-2,-4.134939E-2,1.8055977E-2],"split_indices":[43,1,1,0,0,40,16,0,0,0,0,0,0,0,0],"split_type":[0,0,0,0,0,0,0,0,0,0,0,0,0,0,0],"sum_hessian":[6.883875E2,3.8784106E2,3.0054645E2,1.9696686E2,1.908742E2,1.1118689E2,1.8935956E2,1.5296082E2,4.4006046E1,1.4221614E2,4.8658073E1,3.3646114E1,7.754078E1,3.8134384E1,1.5122517E2],"tree_param":{"num_deleted":"0","num_feature":"45","num_nodes":"15","size_leaf_vector":"1"}},{"base_weights":[-3.35542E-2,3.5928285E-1,-1.5477076E-1,1.1514279E-2,5.437184E-1,-4.3340734E-1,3.1022513E-3,2.4830995E-2,-2.8262546E-2,1.0195281E-1,4.271851E-2,-5.858202E-2,-2.3181364E-2,1.8434843E-2,-2.289967E-2],"categories":[],"categories_nodes":[],"categories_segments":[],"categories_sizes":[],"default_left":[0,0,0,0,0,0,0,0,0,0,0,0,0,0,0],"id":22,"left_children":[1,3,5,7,9,11,13,-1,-1,-1,-1,-1,-1,-1,-1],"loss_changes":[3.1422653E1,9.978302E0,2.2179329E1,3.826895E0,5.420002E0,5.5349655E0,1.3580647E1,0E0,0E0,0E0,0E0,0E0,0E0,0E0,0E0],"parents":[2147483647,0,0,1,1,2,2,3,3,4,4,5,5,6,6],"right_children":[2,4,6,8,10,12,14,-1,-1,-1,-1,-1,-1,-1,-1],"split_conditions":[2.3355E2,1E0,1E0,6.595E1,1E0,1E0,3.08875E3,2.4830995E-2,-2.8262546E-2,1.0195281E-1,4.271851E-2,-5.858202E-2,-2.3181364E-2,1.8434843E-2,-2.289967E-2],"split_indices":[1,27,16,1,33,21,1,0,0,0,0,0,0,0,0],"split_type":[0,0,0,0,0,0,0,0,0,0,0,0,0,0,0],"sum_hessian":[6.5880145E2,1.5511731E2,5.036841E2,5.3940063E1,1.0117725E2,1.8185251E2,3.218316E2,2.9926111E1,2.4013952E1,1.914266E1,8.203459E1,1.0301563E2,7.883688E1,1.8077061E2,1.4106099E2],"tree_param":{"num_deleted":"0","num_feature":"45","num_nodes":"15","size_leaf_vector":"1"}},{"base_weights":[2.9939879E-3,7.463316E-2,-6.168515E-1,-3.0356698E-2,2.4250756E-1,-7.168143E-1,-2.6538116E-1,-2.4737759E-2,6.891262E-3,6.4952485E-2,1.9957095E-2,-8.213994E-2,-5.9510496E-2,-4.174942E-3,-4.968896E-2],"categories":[],"categories_nodes":[],"categories_segments":[],"categories_sizes":[],"default_left":[0,0,0,0,0,0,0,0,0,0,0,0,0,0,0],"id":23,"left_children":[1,3,5,7,9,11,13,-1,-1,-1,-1,-1,-1,-1,-1],"loss_changes":[2.9333296E1,1.0439965E1,2.3093815E0,7.86627E0,3.9177399E0,4.3009186E-1,8.153199E-1,0E0,0E0,0E0,0E0,0E0,0E0,0E0,0E0],"parents":[2147483647,0,0,1,1,2,2,3,3,4,4,5,5,6,6],"right_children":[2,4,6,8,10,12,14,-1,-1,-1,-1,-1,-1,-1,-1],"split_conditions":[1E0,1E0,1E0,1E0,1E0,1E0,1E0,-2.4737759E-2,6.891262E-3,6.4952485E-2,1.9957095E-2,-8.213994E-2,-5.9510496E-2,-4.174942E-3,-4.968896E-2],"split_indices":[38,35,21,27,11,32,15,0,0,0,0,0,0,0,0],"split_type":[0,0,0,0,0,0,0,0,0,0,0,0,0,0,0],"sum_hessian":[6.5956384E2,5.91626E2,6.793788E1,3.642383E2,2.2738766E2,5.2489452E1,1.5448429E1,1.1408395E2,2.5015437E2,2.1024292E1,2.0636337E2,2.6684753E1,2.5804699E1,8.158082E0,7.2903466E0],"tree_param":{"num_deleted":"0","num_feature":"45","num_nodes":"15","size_leaf_vector":"1"}},{"base_weights":[-1.4548736E-2,-2.525187E-1,1.0423956E-1,6.697039E-2,-3.0175027E-1,-5.1463496E-2,2.2052814E-1,5.3878564E-2,-2.4056187E-2,-4.5048665E-2,-2.4185492E-2,-3.804649E-2,8.677319E-3,3.2202962E-3,2.8972397E-2],"categories":[],"categories_nodes":[],"categories_segments":[],"categories_sizes":[],"default_left":[0,0,0,0,0,0,0,0,0,0,0,0,0,0,0],"id":24,"left_children":[1,3,5,7,9,11,13,-1,-1,-1,-1,-1,-1,-1,-1],"loss_changes":[1.8914495E1,3.5142384E0,8.087761E0,4.440262E0,1.6660213E0,8.714385E0,3.326374E0,0E0,0E0,0E0,0E0,0E0,0E0,0E0,0E0],"parents":[2147483647,0,0,1,1,2,2,3,3,4,4,5,5,6,6],"right_children":[2,4,6,8,10,12,14,-1,-1,-1,-1,-1,-1,-1,-1],"split_conditions":[1E0,1E0,1E0,1E0,2.635E1,1E0,1E0,5.3878564E-2,-2.4056187E-2,-4.5048665E-2,-2.4185492E-2,-3.804649E-2,8.677319E-3,3.2202962E-3,2.8972397E-2],"split_indices":[40,8,4,16,0,16,27,0,0,0,0,0,0,0,0],"split_type":[0,0,0,0,0,0,0,0,0,0,0,0,0,0,0],"sum_hessian":[6.681466E2,2.2228255E2,4.4586407E2,2.9655096E1,1.9262744E2,1.9074597E2,2.5511809E2,1.1553604E1,1.8101494E1,5.436466E1,1.3826279E2,5.6174736E1,1.3457123E2,6.874703E1,1.8637106E2],"tree_param":{"num_deleted":"0","num_feature":"45","num_nodes":"15","size_leaf_vector":"1"}},{"base_weights":[1.2556034E-2,-1.9480574E-1,2.6925865E-1,-4.9592042E-1,-4.3905694E-2,4.9884107E-2,3.8653812E-1,-7.6375246E-2,-2.3414198E-2,-9.3808165E-3,2.0174228E-2,-2.7176011E-2,1.5102493E-2,3.2129686E-2,6.927936E-2],"categories":[],"categories_nodes":[],"categories_segments":[],"categories_sizes":[],"default_left":[0,0,0,0,0,0,0,0,0,0,0,0,0,0,0],"id":25,"left_children":[1,3,5,7,9,11,13,-1,-1,-1,-1,-1,-1,-1,-1],"loss_changes":[3.5109844E1,1.6568335E1,7.572876E0,8.447538E0,2.9957838E0,3.3791902E0,3.7244167E0,0E0,0E0,0E0,0E0,0E0,0E0,0E0,0E0],"parents":[2147483647,0,0,1,1,2,2,3,3,4,4,5,5,6,6],"right_children":[2,4,6,8,10,12,14,-1,-1,-1,-1,-1,-1,-1,-1],"split_conditions":[1E0,1E0,1E0,1E0,9.045E1,1E0,9.52E1,-7.6375246E-2,-2.3414198E-2,-9.3808165E-3,2.0174228E-2,-2.7176011E-2,1.5102493E-2,3.2129686E-2,6.927936E-2],"split_indices":[43,36,21,32,0,36,0,0,0,0,0,0,0,0,0],"split_type":[0,0,0,0,0,0,0,0,0,0,0,0,0,0,0],"sum_hessian":[6.58591E2,3.6437396E2,2.9421704E2,1.2126051E2,2.4311346E2,1.0274406E2,1.9147298E2,5.946333E1,6.179718E1,2.0232162E2,4.0791824E1,2.4377182E1,7.8366875E1,1.5869162E2,3.2781357E1],"tree_param":{"num_deleted":"0","num_feature":"45","num_nodes":"15","size_leaf_vector":"1"}},{"base_weights":[2.9724275E-3,5.052768E-1,-8.5586995E-2,3.9482084E-1,9.1119334E-2,-6.3716733E-1,-3.1840827E-2,7.912689E-2,2.9675646E-2,-3.4716766E-2,-9.14399E-2,1.8957404E-2,-1.7424768E-2],"categories":[],"categories_nodes":[],"categories_segments":[],"categories_sizes":[],"default_left":[0,0,0,0,0,0,0,0,0,0,0,0,0],"id":26,"left_children":[1,3,5,7,-1,9,11,-1,-1,-1,-1,-1,-1],"loss_changes":[2.8388063E1,4.108618E0,1.6073383E1,2.840043E0,0E0,3.7119446E0,1.5620802E1,0E0,0E0,0E0,0E0,0E0,0E0],"parents":[2147483647,0,0,1,1,2,2,3,3,5,5,6,6],"right_children":[2,4,6,8,-1,10,12,-1,-1,-1,-1,-1,-1],"split_conditions":[1.1005E2,7.07E1,2.58E1,1E0,9.1119334E-2,2.02E1,1.27055E3,7.912689E-2,2.9675646E-2,-3.4716766E-2,-9.14399E-2,1.8957404E-2,-1.7424768E-2],"split_indices":[1,0,0,11,0,0,1,0,0,0,0,0,0],"split_type":[0,0,0,0,0,0,0,0,0,0,0,0,0],"sum_hessian":[6.371804E2,9.514878E1,5.420316E2,7.557108E1,1.9577696E1,4.7644394E1,4.9438724E2,1.4285241E1,6.128584E1,2.383637E1,2.3808025E1,1.934479E2,3.0093933E2],"tree_param":{"num_deleted":"0","num_feature":"45","num_nodes":"13","size_leaf_vector":"1"}},{"base_weights":[-2.383378E-2,3.788818E-2,-6.245188E-1,1.8427084E-1,-1.3839254E-1,-7.7313536E-1,-2.5481644E-1,8.242766E-3,4.9638744E-2,4.2532175E-3,-4.1499633E-2,-8.3696835E-2,-6.332926E-2,-5.3717013E-2,-2.7615824E-3],"categories":[],"categories_nodes":[],"categories_segments":[],"categories_sizes":[],"default_left":[0,0,0,0,0,0,0,0,0,0,0,0,0,0,0],"id":27,"left_children":[1,3,5,7,9,11,13,-1,-1,-1,-1,-1,-1,-1,-1],"loss_changes":[2.3820122E1,1.5051422E1,3.1906433E0,1.0107254E1,1.3254675E1,1.1394119E-1,1.1415536E0,0E0,0E0,0E0,0E0,0E0,0E0,0E0,0E0],"parents":[2147483647,0,0,1,1,2,2,3,3,4,4,5,5,6,6],"right_children":[2,4,6,8,10,12,14,-1,-1,-1,-1,-1,-1,-1,-1],"split_conditions":[1E0,1.27055E3,1E0,1E0,1E0,1E0,5.22495E3,8.242766E-3,4.9638744E-2,4.2532175E-3,-4.1499633E-2,-8.3696835E-2,-6.332926E-2,-5.3717013E-2,-2.7615824E-3],"split_indices":[38,1,18,32,33,15,1,0,0,0,0,0,0,0,0],"split_type":[0,0,0,0,0,0,0,0,0,0,0,0,0,0,0],"sum_hessian":[6.4165765E2,5.8229395E2,5.936376E1,3.181123E2,2.641816E2,4.1953335E1,1.7410427E1,2.4032626E2,7.778606E1,1.5996965E2,1.0421196E2,2.7093592E1,1.4859744E1,7.458823E0,9.951604E0],"tree_param":{"num_deleted":"0","num_feature":"45","num_nodes":"15","size_leaf_vector":"1"}},{"base_weights":[1.7086653E-2,8.07696E-2,-6.3550806E-1,1.4876693E-2,4.2130426E-1,-8.4675527E-1,-2.6684582E-1,3.0841446E-2,-5.870925E-3,7.271895E-2,2.9941568E-2,-6.7423865E-2,-9.174166E-2,-2.7856065E-3,-5.107951E-2],"categories":[],"categories_nodes":[],"categories_segments":[],"categories_sizes":[],"default_left":[0,0,0,0,0,0,0,0,0,0,0,0,0,0,0],"id":28,"left_children":[1,3,5,7,9,11,13,-1,-1,-1,-1,-1,-1,-1,-1],"loss_changes":[2.683614E1,1.3195457E1,4.35824E0,1.0665714E1,3.445984E0,1.3284492E-1,1.2547648E0,0E0,0E0,0E0,0E0,0E0,0E0,0E0,0E0],"parents":[2147483647,0,0,1,1,2,2,3,3,4,4,5,5,6,6],"right_children":[2,4,6,8,10,12,14,-1,-1,-1,-1,-1,-1,-1,-1],"split_conditions":[1E0,9.77E1,9.35E1,1E0,1.004E2,2.52E1,1E0,3.0841446E-2,-5.870925E-3,7.271895E-2,2.9941568E-2,-6.7423865E-2,-9.174166E-2,-2.7856065E-3,-5.107951E-2],"split_indices":[38,0,0,8,0,0,2,0,0,0,0,0,0,0,0],"split_type":[0,0,0,0,0,0,0,0,0,0,0,0,0,0,0],"sum_hessian":[6.44616E2,5.8770355E2,5.691247E1,4.9285815E2,9.484541E1,3.5768402E1,2.1144073E1,9.8468216E1,3.9438995E2,2.6317463E1,6.852795E1,1.1924978E1,2.3843422E1,1.0962014E1,1.0182059E1],"tree_param":{"num_deleted":"0","num_feature":"45","num_nodes":"15","size_leaf_vector":"1"}},{"base_weights":[-1.2072541E-2,4.1916642E-1,-9.182187E-2,6.572294E-1,1.2104543E-1,-3.058093E-1,-1.4747804E-2,5.684827E-2,1.0709796E-1,-1.4797322E-2,5.5151697E-2,-4.2723086E-2,3.6748152E-3,3.0180325E-3,-5.1143E-2],"categories":[],"categories_nodes":[],"categories_segments":[],"categories_sizes":[],"default_left":[0,0,0,0,0,0,0,0,0,0,0,0,0,0,0],"id":29,"left_children":[1,3,5,7,9,11,13,-1,-1,-1,-1,-1,-1,-1,-1],"loss_changes":[2.2222979E1,7.1178436E0,8.990884E0,1.7504253E0,5.29726E0,6.0125513E0,8.96516E0,0E0,0E0,0E0,0E0,0E0,0E0,0E0,0E0],"parents":[2147483647,0,0,1,1,2,2,3,3,4,4,5,5,6,6],"right_children":[2,4,6,8,10,12,14,-1,-1,-1,-1,-1,-1,-1,-1],"split_conditions":[9.61E1,1E0,1E0,1E0,4.465E1,1.0235E2,4.82055E3,5.684827E-2,1.0709796E-1,-1.4797322E-2,5.5151697E-2,-4.2723086E-2,3.6748152E-3,3.0180325E-3,-5.1143E-2],"split_indices":[1,39,36,13,0,0,1,0,0,0,0,0,0,0,0],"split_type":[0,0,0,0,0,0,0,0,0,0,0,0,0,0,0],"sum_hessian":[6.45126E2,1.0035192E2,5.4477405E2,5.5461296E1,4.4890625E1,1.4386508E2,4.0090897E2,4.6643543E1,8.817753E0,2.782796E1,1.7062666E1,1.06124886E2,3.7740192E1,3.6808307E2,3.2825882E1],"tree_param":{"num_deleted":"0","num_feature":"45","num_nodes":"15","size_leaf_vector":"1"}},{"base_weights":[-6.0262445E-2,3.492743E-1,-1.24672726E-1,2.931916E-1,9.285822E-2,-6.2642455E-1,-6.83579E-2,7.363488E-2,2.0725774E-2,-2.9745454E-2,-8.632788E-2,6.0965116E-3,-2.5741398E-2],"categories":[],"categories_nodes":[],"categories_segments":[],"categories_sizes":[],"default_left":[0,0,0,0,0,0,0,0,0,0,0,0,0],"id":30,"left_children":[1,3,5,7,-1,9,11,-1,-1,-1,-1,-1,-1],"loss_changes":[1.6921988E1,2.6969824E0,1.5631958E1,2.9792414E0,0E0,4.222658E0,1.2199274E1,0E0,0E0,0E0,0E0,0E0,0E0],"parents":[2147483647,0,0,1,1,2,2,3,3,5,5,6,6],"right_children":[2,4,6,8,-1,10,12,-1,-1,-1,-1,-1,-1],"split_conditions":[8.215E1,7.53E1,2.995E1,2.02E1,9.285822E-2,3.0275E2,1E0,7.363488E-2,2.0725774E-2,-2.9745454E-2,-8.632788E-2,6.0965116E-3,-2.5741398E-2],"split_indices":[1,0,0,1,0,1,12,0,0,0,0,0,0],"split_type":[0,0,0,0,0,0,0,0,0,0,0,0,0],"sum_hessian":[6.4018427E2,8.670171E1,5.5348254E2,7.973558E1,6.966136E0,5.5341454E1,4.981411E2,1.2335835E1,6.739974E1,2.3638103E1,3.170335E1,2.9600137E2,2.0213974E2],"tree_param":{"num_deleted":"0","num_feature":"45","num_nodes":"13","size_leaf_vector":"1"}},{"base_weights":[1.4215327E-2,2.6274607E-1,-8.463369E-2,1.08597524E-1,3.473232E-1,-2.4711125E-1,6.075251E-2,4.633883E-2,-3.8868971E-3,5.0542694E-2,1.5487328E-2,-1.8889483E-2,-5.6961622E-2,2.9588474E-2,-1.7672932E-2],"categories":[],"categories_nodes":[],"categories_segments":[],"categories_sizes":[],"default_left":[0,0,0,0,0,0,0,0,0,0,0,0,0,0,0],"id":31,"left_children":[1,3,5,7,9,11,13,-1,-1,-1,-1,-1,-1,-1,-1],"loss_changes":[1.544174E1,2.3129196E0,1.0631517E1,3.3623E0,3.467886E0,3.9357166E0,1.3302626E1,0E0,0E0,0E0,0E0,0E0,0E0,0E0,0E0],"parents":[2147483647,0,0,1,1,2,2,3,3,4,4,5,5,6,6],"right_children":[2,4,6,8,10,12,14,-1,-1,-1,-1,-1,-1,-1,-1],"split_conditions":[3.5155E2,1E0,1E0,3.48E1,1.1825E2,1E0,3.21755E3,4.633883E-2,-3.8868971E-3,5.0542694E-2,1.5487328E-2,-1.8889483E-2,-5.6961622E-2,2.9588474E-2,-1.7672932E-2],"split_indices":[1,21,35,1,1,37,1,0,0,0,0,0,0,0,0],"split_type":[0,0,0,0,0,0,0,0,0,0,0,0,0,0,0],"sum_hessian":[6.2760315E2,1.7835239E2,4.4925076E2,6.3592327E1,1.14760056E2,2.1198988E2,2.372609E2,1.835668E1,4.5235645E1,6.255555E1,5.2204506E1,1.8024594E2,3.1743929E1,1.1915843E2,1.1810246E2],"tree_param":{"num_deleted":"0","num_feature":"45","num_nodes":"15","size_leaf_vector":"1"}},{"base_weights":[1.6069949E-2,-1.2651765E-1,1.8889631E-1,-7.758142E-2,-4.711323E-1,3.1129226E-1,2.248717E-2,-1.824083E-2,3.505238E-3,-6.0956348E-2,-2.5930164E-2,4.0694814E-2,-8.883683E-3,1.2497306E-2,-2.7991638E-2],"categories":[],"categories_nodes":[],"categories_segments":[],"categories_sizes":[],"default_left":[0,0,0,0,0,0,0,0,0,0,0,0,0,0,0],"id":32,"left_children":[1,3,5,7,9,11,13,-1,-1,-1,-1,-1,-1,-1,-1],"loss_changes":[1.5496618E1,5.793129E0,5.786276E0,3.5730605E0,1.1745987E0,6.285635E0,3.7678194E0,0E0,0E0,0E0,0E0,0E0,0E0,0E0,0E0],"parents":[2147483647,0,0,1,1,2,2,3,3,4,4,5,5,6,6],"right_children":[2,4,6,8,10,12,14,-1,-1,-1,-1,-1,-1,-1,-1],"split_conditions":[1E0,1E0,1E0,1E0,1E0,1E0,1E0,-1.824083E-2,3.505238E-3,-6.0956348E-2,-2.5930164E-2,4.0694814E-2,-8.883683E-3,1.2497306E-2,-2.7991638E-2],"split_indices":[43,38,12,2,41,39,26,0,0,0,0,0,0,0,0],"split_type":[0,0,0,0,0,0,0,0,0,0,0,0,0,0,0],"sum_hessian":[6.2786237E2,3.441012E2,2.8376117E2,3.018502E2,4.2251003E1,1.63252E2,1.2050918E2,1.5618294E2,1.4566725E2,2.4984715E1,1.726629E1,1.3174757E2,3.1504421E1,9.022492E1,3.0284256E1],"tree_param":{"num_deleted":"0","num_feature":"45","num_nodes":"15","size_leaf_vector":"1"}},{"base_weights":[-2.3449335E-2,4.3147427E-1,-1.0351338E-1,3.3490908E-1,1.1211099E-1,-2.569664E-1,6.984923E-2,5.40529E-2,1.3402158E-2,-5.8604278E-2,-1.7585287E-2,1.3301692E-2,-3.713904E-2],"categories":[],"categories_nodes":[],"categories_segments":[],"categories_sizes":[],"default_left":[0,0,0,0,0,0,0,0,0,0,0,0,0],"id":33,"left_children":[1,3,5,7,-1,9,11,-1,-1,-1,-1,-1,-1],"loss_changes":[2.2521145E1,5.9749775E0,1.3993335E1,3.3462496E0,0E0,7.394432E0,6.915109E0,0E0,0E0,0E0,0E0,0E0,0E0],"parents":[2147483647,0,0,1,1,2,2,3,3,5,5,6,6],"right_children":[2,4,6,8,-1,10,12,-1,-1,-1,-1,-1,-1],"split_conditions":[9.61E1,1E0,1E0,1E0,1.1211099E-1,1E0,6.50615E3,5.40529E-2,1.3402158E-2,-5.8604278E-2,-1.7585287E-2,1.3301692E-2,-3.713904E-2],"split_indices":[1,32,32,39,0,36,1,0,0,0,0,0,0],"split_type":[0,0,0,0,0,0,0,0,0,0,0,0,0],"sum_hessian":[6.172086E2,9.2040474E1,5.2516815E2,8.138717E1,1.0653299E1,2.7845276E2,2.4671538E2,3.9802086E1,4.1585087E1,5.4447536E1,2.2400522E2,2.1612437E2,3.0591007E1],"tree_param":{"num_deleted":"0","num_feature":"45","num_nodes":"13","size_leaf_vector":"1"}},{"base_weights":[-3.0675467E-2,-1.58399E-1,1.2943684E-1,-1.0661424E-1,-5.2771413E-1,2.7628142E-1,-6.564137E-2,1.7012615E-3,-2.3518454E-2,-6.719825E-2,-2.249397E-2,-7.147149E-3,3.5346292E-2,-2.7142892E-2,7.877304E-3],"categories":[],"categories_nodes":[],"categories_segments":[],"categories_sizes":[],"default_left":[0,0,0,0,0,0,0,0,0,0,0,0,0,0,0],"id":34,"left_children":[1,3,5,7,9,11,13,-1,-1,-1,-1,-1,-1,-1,-1],"loss_changes":[1.2610378E1,6.5309496E0,7.848939E0,4.792856E0,1.7611532E0,4.2061024E0,3.5157223E0,0E0,0E0,0E0,0E0,0E0,0E0,0E0,0E0],"parents":[2147483647,0,0,1,1,2,2,3,3,4,4,5,5,6,6],"right_children":[2,4,6,8,10,12,14,-1,-1,-1,-1,-1,-1,-1,-1],"split_conditions":[1E0,1E0,1E0,1E0,9.35E1,1E0,7.07E1,1.7012615E-3,-2.3518454E-2,-6.719825E-2,-2.249397E-2,-7.147149E-3,3.5346292E-2,-2.7142892E-2,7.877304E-3],"split_indices":[43,38,12,33,0,40,0,0,0,0,0,0,0,0,0],"split_type":[0,0,0,0,0,0,0,0,0,0,0,0,0,0,0],"sum_hessian":[6.1563983E2,3.424604E2,2.7317947E2,3.009114E2,4.154896E1,1.5573914E2,1.1744033E2,1.5362604E2,1.4728539E2,2.7727455E1,1.3821505E1,2.8293858E1,1.27445274E2,4.8248074E1,6.919226E1],"tree_param":{"num_deleted":"0","num_feature":"45","num_nodes":"15","size_leaf_vector":"1"}},{"base_weights":[8.715303E-3,-1.3056281E-1,1.7469004E-1,-1.7752433E-1,1.2016731E-1,7.6046444E-2,2.7525637E-1,3.6627468E-2,-1.9511972E-2,-6.1045787E-3,3.362663E-2,1.3773191E-2,-2.294091E-2,9.946378E-3,3.992786E-2],"categories":[],"categories_nodes":[],"categories_segments":[],"categories_sizes":[],"default_left":[0,0,0,0,0,0,0,0,0,0,0,0,0,0,0],"id":35,"left_children":[1,3,5,7,9,11,13,-1,-1,-1,-1,-1,-1,-1,-1],"loss_changes":[1.457479E1,4.0474086E0,2.843213E0,2.8005285E0,2.1398146E0,2.7650683E0,3.0815535E0,0E0,0E0,0E0,0E0,0E0,0E0,0E0,0E0],"parents":[2147483647,0,0,1,1,2,2,3,3,4,4,5,5,6,6],"right_children":[2,4,6,8,10,12,14,-1,-1,-1,-1,-1,-1,-1,-1],"split_conditions":[1E0,9.825E1,1E0,1.95E1,1E0,1E0,1E0,3.6627468E-2,-1.9511972E-2,-6.1045787E-3,3.362663E-2,1.3773191E-2,-2.294091E-2,9.946378E-3,3.992786E-2],"split_indices":[43,0,14,0,3,29,21,0,0,0,0,0,0,0,0],"split_type":[0,0,0,0,0,0,0,0,0,0,0,0,0,0,0],"sum_hessian":[6.294956E2,3.4233282E2,2.8716278E2,2.8845203E2,5.388081E1,1.4541049E2,1.4175229E2,8.730198E0,2.7972183E2,2.950103E1,2.437978E1,1.2120765E2,2.4202833E1,5.9010353E1,8.2741936E1],"tree_param":{"num_deleted":"0","num_feature":"45","num_nodes":"15","size_leaf_vector":"1"}},{"base_weights":[-2.2167679E-2,1.9891408E-1,-1.1577908E-1,4.4101432E-1,9.224853E-2,-2.386584E-1,1.0428331E-1,7.468409E-2,1.4649588E-2,6.2324036E-2,3.3346121E-3,-1.5654428E-2,-6.329231E-2,5.921756E-2,8.8700204E-4],"categories":[],"categories_nodes":[],"categories_segments":[],"categories_sizes":[],"default_left":[0,0,0,0,0,0,0,0,0,0,0,0,0,0,0],"id":36,"left_children":[1,3,5,7,9,11,13,-1,-1,-1,-1,-1,-1,-1,-1],"loss_changes":[1.2769466E1,4.7198467E0,1.1731869E1,4.989933E0,3.9946592E0,8.958914E0,7.242485E0,0E0,0E0,0E0,0E0,0E0,0E0,0E0,0E0],"parents":[2147483647,0,0,1,1,2,2,3,3,4,4,5,5,6,6],"right_children":[2,4,6,8,10,12,14,-1,-1,-1,-1,-1,-1,-1,-1],"split_conditions":[3.5155E2,1E0,9.35E1,1E0,2.02E1,3.5273E3,1.6202E3,7.468409E-2,1.4649588E-2,6.2324036E-2,3.3346121E-3,-1.5654428E-2,-6.329231E-2,5.921756E-2,8.8700204E-4],"split_indices":[1,12,0,2,1,1,1,0,0,0,0,0,0,0,0],"split_type":[0,0,0,0,0,0,0,0,0,0,0,0,0,0,0],"sum_hessian":[6.15952E2,1.830592E2,4.3289282E2,5.5506985E1,1.27552216E2,2.7775604E2,1.5513678E2,2.6854008E1,2.8652977E1,1.2258069E1,1.1529414E2,2.3045694E2,4.72991E1,2.4950438E1,1.3018634E2],"tree_param":{"num_deleted":"0","num_feature":"45","num_nodes":"15","size_leaf_vector":"1"}},{"base_weights":[-3.3078264E-2,6.242524E-2,-3.3314714E-1,1.0460939E-1,-1.9980001E-1,-1.1875099E-1,-2.9088193E-1,2.0294158E-2,-2.1348966E-3,2.614564E-2,-4.6366822E-2,-2.0624667E-2,-5.691244E-2],"categories":[],"categories_nodes":[],"categories_segments":[],"categories_sizes":[],"default_left":[0,0,0,0,0,0,0,0,0,0,0,0,0],"id":37,"left_children":[1,3,5,7,9,-1,11,-1,-1,-1,-1,-1,-1],"loss_changes":[1.77709E1,5.215473E0,5.233122E0,5.026626E0,8.017854E0,0E0,3.3161516E0,0E0,0E0,0E0,0E0,0E0,0E0],"parents":[2147483647,0,0,1,1,2,2,3,3,4,4,6,6],"right_children":[2,4,6,8,10,-1,12,-1,-1,-1,-1,-1,-1],"split_conditions":[3.32705E3,1E0,3.47555E3,9.5365E2,4.02E1,-1.1875099E-1,1E0,2.0294158E-2,-2.1348966E-3,2.614564E-2,-4.6366822E-2,-2.0624667E-2,-5.691244E-2],"split_indices":[1,34,1,1,1,0,30,0,0,0,0,0,0],"split_type":[0,0,0,0,0,0,0,0,0,0,0,0,0],"sum_hessian":[6.192478E2,4.7004242E2,1.4920534E2,4.0516425E2,6.48782E1,6.3945956E0,1.4281075E2,2.2736281E2,1.7780142E2,2.3610424E1,4.1267773E1,1.1017006E2,3.264069E1],"tree_param":{"num_deleted":"0","num_feature":"45","num_nodes":"13","size_leaf_vector":"1"}},{"base_weights":[-3.02917E-2,-2.4409248E-1,2.9073143E-2,-7.110333E-1,-1.5011887E-1,-2.1475105E-2,3.3304986E-1,-5.1308163E-2,-9.108834E-2,-3.6740877E-2,6.9492753E-3,1.1180826E-2,-1.4806579E-2,4.4989873E-2,-2.1302328E-2],"categories":[],"categories_nodes":[],"categories_segments":[],"categories_sizes":[],"default_left":[0,0,0,0,0,0,0,0,0,0,0,0,0,0,0],"id":38,"left_children":[1,3,5,7,9,11,13,-1,-1,-1,-1,-1,-1,-1,-1],"loss_changes":[7.8018975E0,5.80812E0,7.3995786E0,6.4637375E-1,5.3494167E0,6.97961E0,4.428954E0,0E0,0E0,0E0,0E0,0E0,0E0,0E0,0E0],"parents":[2147483647,0,0,1,1,2,2,3,3,4,4,5,5,6,6],"right_children":[2,4,6,8,10,12,14,-1,-1,-1,-1,-1,-1,-1,-1],"split_conditions":[1E0,4.065E1,9.6E1,1E0,1E0,1E0,1E0,-5.1308163E-2,-9.108834E-2,-3.6740877E-2,6.9492753E-3,1.1180826E-2,-1.4806579E-2,4.4989873E-2,-2.1302328E-2],"split_indices":[36,0,0,4,3,3,39,0,0,0,0,0,0,0,0],"split_type":[0,0,0,0,0,0,0,0,0,0,0,0,0,0,0],"sum_hessian":[6.1391815E2,1.3307967E2,4.8083847E2,2.1745646E1,1.1133403E2,4.1267883E2,6.815963E1,1.18208E1,9.924847E0,5.5793694E1,5.5540333E1,2.010539E2,2.1162495E2,5.6218124E1,1.1941507E1],"tree_param":{"num_deleted":"0","num_feature":"45","num_nodes":"15","size_leaf_vector":"1"}},{"base_weights":[-3.0361043E-2,1.18596144E-1,-1.5851228E-1,4.83874E-2,3.9486545E-1,1.324802E-1,-2.6236096E-1,3.0899897E-2,-7.930999E-3,3.1643342E-3,5.5748302E-2,2.466567E-2,-3.6175188E-2,-5.4204877E-2,-1.4456873E-2],"categories":[],"categories_nodes":[],"categories_segments":[],"categories_sizes":[],"default_left":[0,0,0,0,0,0,0,0,0,0,0,0,0,0,0],"id":39,"left_children":[1,3,5,7,9,11,13,-1,-1,-1,-1,-1,-1,-1,-1],"loss_changes":[1.1623443E1,5.453524E0,9.906956E0,7.505096E0,3.3581314E0,4.920509E0,7.9122696E0,0E0,0E0,0E0,0E0,0E0,0E0,0E0,0E0],"parents":[2147483647,0,0,1,1,2,2,3,3,4,4,5,5,6,6],"right_children":[2,4,6,8,10,12,14,-1,-1,-1,-1,-1,-1,-1,-1],"split_conditions":[9.5365E2,1E0,1E0,8.215E1,1E0,5.6084E3,1E0,3.0899897E-2,-7.930999E-3,3.1643342E-3,5.5748302E-2,2.466567E-2,-3.6175188E-2,-5.4204877E-2,-1.4456873E-2],"split_indices":[1,14,8,1,16,1,16,0,0,0,0,0,0,0,0],"split_type":[0,0,0,0,0,0,0,0,0,0,0,0,0,0,0],"sum_hessian":[6.0791394E2,2.811524E2,3.2676154E2,2.2464946E2,5.650294E1,8.590654E1,2.40855E2,7.364368E1,1.5100578E2,1.7658424E1,3.8844517E1,6.998842E1,1.5918121E1,7.0843094E1,1.700119E2],"tree_param":{"num_deleted":"0","num_feature":"45","num_nodes":"15","size_leaf_vector":"1"}},{"base_weights":[2.499242E-2,1.7827608E-1,-4.5689758E-2,1.207768E-1,6.492211E-1,-1.6064295E-1,5.31834E-2,4.007616E-2,5.815334E-3,9.754618E-2,3.3882175E-2,-8.346927E-3,-4.457641E-2,5.406874E-2,-5.8448478E-3],"categories":[],"categories_nodes":[],"categories_segments":[],"categories_sizes":[],"default_left":[0,0,0,0,0,0,0,0,0,0,0,0,0,0,0],"id":40,"left_children":[1,3,5,7,9,11,13,-1,-1,-1,-1,-1,-1,-1,-1],"loss_changes":[6.6622677E0,5.215396E0,4.789195E0,3.03126E0,1.9612808E0,4.2675586E0,1.2353152E1,0E0,0E0,0E0,0E0,0E0,0E0,0E0,0E0],"parents":[2147483647,0,0,1,1,2,2,3,3,4,4,5,5,6,6],"right_children":[2,4,6,8,10,12,14,-1,-1,-1,-1,-1,-1,-1,-1],"split_conditions":[3.745E2,1E0,1E0,4.02E1,1E0,1E0,1.184E3,4.007616E-2,5.815334E-3,9.754618E-2,3.3882175E-2,-8.346927E-3,-4.457641E-2,5.406874E-2,-5.8448478E-3],"split_indices":[1,26,35,1,12,41,1,0,0,0,0,0,0,0,0],"split_type":[0,0,0,0,0,0,0,0,0,0,0,0,0,0,0],"sum_hessian":[6.140407E2,1.9354709E2,4.2049362E2,1.7304738E2,2.0499714E1,1.9429152E2,2.262021E2,3.1136894E1,1.4191049E2,9.472491E0,1.1027224E1,1.534135E2,4.0878025E1,4.1788246E1,1.8441386E2],"tree_param":{"num_deleted":"0","num_feature":"45","num_nodes":"15","size_leaf_vector":"1"}},{"base_weights":[-5.9836977E-3,2.509825E-2,-4.236687E-1,5.0645452E-2,-2.1305962E-1,-5.6841403E-1,-1.6575266E-3,1.388887E-2,-1.6945349E-3,-1.589788E-2,-5.6216497E-2,-6.694812E-2,-2.9335279E-2],"categories":[],"categories_nodes":[],"categories_segments":[],"categories_sizes":[],"default_left":[0,0,0,0,0,0,0,0,0,0,0,0,0],"id":41,"left_children":[1,3,5,7,9,11,-1,-1,-1,-1,-1,-1,-1],"loss_changes":[7.974906E0,3.484551E0,2.5022664E0,3.0838008E0,1.003027E0,7.73901E-1,0E0,0E0,0E0,0E0,0E0,0E0,0E0],"parents":[2147483647,0,0,1,1,2,2,3,3,4,4,5,5],"right_children":[2,4,6,8,10,12,-1,-1,-1,-1,-1,-1,-1],"split_conditions":[1E0,1E0,1E0,1E0,1E0,1E0,-1.6575266E-3,1.388887E-2,-1.6945349E-3,-1.589788E-2,-5.6216497E-2,-6.694812E-2,-2.9335279E-2],"split_indices":[38,22,21,30,42,18,0,0,0,0,0,0,0],"split_type":[0,0,0,0,0,0,0,0,0,0,0,0,0],"sum_hessian":[6.133734E2,5.713281E2,4.204531E1,5.1633453E2,5.4993557E1,3.0870811E1,1.11745E1,2.2372401E2,2.9261057E2,4.8247158E1,6.7463994E0,2.205139E1,8.819421E0],"tree_param":{"num_deleted":"0","num_feature":"45","num_nodes":"13","size_leaf_vector":"1"}},{"base_weights":[-2.0216059E-2,3.946216E-2,-2.3250036E-1,2.8544553E-3,4.0332094E-1,-2.9705274E-1,6.0190666E-2,-1.9377038E-2,8.597468E-3,1.8900381E-2,7.012191E-2,-1.8892538E-2,-5.7155795E-2,9.909058E-2,-2.8310377E-2],"categories":[],"categories_nodes":[],"categories_segments":[],"categories_sizes":[],"default_left":[0,0,0,0,0,0,0,0,0,0,0,0,0,0,0],"id":42,"left_children":[1,3,5,7,9,11,13,-1,-1,-1,-1,-1,-1,-1,-1],"loss_changes":[7.579879E0,6.222102E0,2.4894109E0,6.9537516E0,2.6599898E0,3.1411047E0,7.8526635E0,0E0,0E0,0E0,0E0,0E0,0E0,0E0,0E0],"parents":[2147483647,0,0,1,1,2,2,3,3,4,4,5,5,6,6],"right_children":[2,4,6,8,10,12,14,-1,-1,-1,-1,-1,-1,-1,-1],"split_conditions":[1E0,1E0,9.825E1,6.99E1,1E0,1E0,1.0115E2,-1.9377038E-2,8.597468E-3,1.8900381E-2,7.012191E-2,-1.8892538E-2,-5.7155795E-2,9.909058E-2,-2.8310377E-2],"split_indices":[7,10,0,0,32,35,0,0,0,0,0,0,0,0,0],"split_type":[0,0,0,0,0,0,0,0,0,0,0,0,0,0,0],"sum_hessian":[5.97451E2,4.666668E2,1.307842E2,4.2446542E2,4.2201393E1,1.07145935E2,2.363826E1,1.25923E2,2.9854242E2,2.5019102E1,1.7182291E1,7.747336E1,2.9672577E1,6.1153994E0,1.7522861E1],"tree_param":{"num_deleted":"0","num_feature":"45","num_nodes":"15","size_leaf_vector":"1"}},{"base_weights":[-6.6204905E-3,1.2092321E-2,-2.6689544E-1,-2.4217112E-2,1.424887E-1,-4.3909326E-1,-8.005879E-2,-6.9921376E-4,-1.4785687E-2,2.2256827E-2,-3.0490054E-2,-2.4544125E-2,-6.644843E-2,-3.910833E-2,4.9691353E-2],"categories":[],"categories_nodes":[],"categories_segments":[],"categories_sizes":[],"default_left":[0,0,0,0,0,0,0,0,0,0,0,0,0,0,0],"id":43,"left_children":[1,3,5,7,9,11,13,-1,-1,-1,-1,-1,-1,-1,-1],"loss_changes":[2.9483578E0,2.676401E0,1.288734E0,9.4145393E-1,4.44474E0,8.358221E-1,3.7015047E0,0E0,0E0,0E0,0E0,0E0,0E0,0E0,0E0],"parents":[2147483647,0,0,1,1,2,2,3,3,4,4,5,5,6,6],"right_children":[2,4,6,8,10,12,14,-1,-1,-1,-1,-1,-1,-1,-1],"split_conditions":[1E0,1E0,1E0,1E0,1E0,1E0,1E0,-6.9921376E-4,-1.4785687E-2,2.2256827E-2,-3.0490054E-2,-2.4544125E-2,-6.644843E-2,-3.910833E-2,4.9691353E-2],"split_indices":[38,9,16,17,41,40,41,0,0,0,0,0,0,0,0],"split_type":[0,0,0,0,0,0,0,0,0,0,0,0,0,0,0],"sum_hessian":[6.045218E2,5.644189E2,4.0102875E1,4.4180386E2,1.2261504E2,2.051769E1,1.9585186E1,3.8824365E2,5.3560204E1,1.0421292E2,1.8402128E1,1.1597661E1,8.920029E0,1.2830062E1,6.755123E0],"tree_param":{"num_deleted":"0","num_feature":"45","num_nodes":"15","size_leaf_vector":"1"}},{"base_weights":[2.039494E-4,1.6166052E-1,-9.129434E-2,2.2147562E-2,6.3484704E-1,-1.8298534E-1,1.372002E-1,7.838929E-3,-3.7350122E-2,1.0462067E-1,4.461963E-2,-1.1308521E-2,-4.7736287E-2,3.1074801E-2,-3.2931965E-2],"categories":[],"categories_nodes":[],"categories_segments":[],"categories_sizes":[],"default_left":[0,0,0,0,0,0,0,0,0,0,0,0,0,0,0],"id":44,"left_children":[1,3,5,7,9,11,13,-1,-1,-1,-1,-1,-1,-1,-1],"loss_changes":[8.719952E0,1.4087864E1,7.905905E0,3.69534E0,3.5379772E0,5.509844E0,8.809507E0,0E0,0E0,0E0,0E0,0E0,0E0,0E0,0E0],"parents":[2147483647,0,0,1,1,2,2,3,3,4,4,5,5,6,6],"right_children":[2,4,6,8,10,12,14,-1,-1,-1,-1,-1,-1,-1,-1],"split_conditions":[5.183E2,7.51E1,9.6E1,1E0,7.985E1,3.6261E3,6.50615E3,7.838929E-3,-3.7350122E-2,1.0462067E-1,4.461963E-2,-1.1308521E-2,-4.7736287E-2,3.1074801E-2,-3.2931965E-2],"split_indices":[1,0,0,23,0,1,1,0,0,0,0,0,0,0,0],"split_type":[0,0,0,0,0,0,0,0,0,0,0,0,0,0,0],"sum_hessian":[5.892632E2,2.1300833E2,3.7625488E2,1.6491011E2,4.8098225E1,2.6857846E2,1.07676414E2,1.4473663E2,2.017347E1,1.4408062E1,3.3690163E1,2.1760103E2,5.097743E1,7.860274E1,2.9073675E1],"tree_param":{"num_deleted":"0","num_feature":"45","num_nodes":"15","size_leaf_vector":"1"}},{"base_weights":[-3.6014772E-3,1.5800841E-1,-9.244134E-2,2.6315832E-1,1.5677238E-2,-3.1536198E-1,3.50119E-2,2.10347E-2,6.4083815E-2,-1.5487181E-2,2.0175008E-2,-4.4042263E-2,-1.2353955E-2,2.8067553E-2,-1.7082747E-2],"categories":[],"categories_nodes":[],"categories_segments":[],"categories_sizes":[],"default_left":[0,0,0,0,0,0,0,0,0,0,0,0,0,0,0],"id":45,"left_children":[1,3,5,7,9,11,13,-1,-1,-1,-1,-1,-1,-1,-1],"loss_changes":[8.605641E0,3.1800232E0,1.0994099E1,2.3709688E0,2.8993266E0,3.3490381E0,1.2489819E1,0E0,0E0,0E0,0E0,0E0,0E0,0E0,0E0],"parents":[2147483647,0,0,1,1,2,2,3,3,4,4,5,5,6,6],"right_children":[2,4,6,8,10,12,14,-1,-1,-1,-1,-1,-1,-1,-1],"split_conditions":[4.8945E2,1E0,7.915E1,8.545E1,4.465E1,1E0,3.08875E3,2.10347E-2,6.4083815E-2,-1.5487181E-2,2.0175008E-2,-4.4042263E-2,-1.2353955E-2,2.8067553E-2,-1.7082747E-2],"split_indices":[1,39,0,0,0,43,1,0,0,0,0,0,0,0,0],"split_type":[0,0,0,0,0,0,0,0,0,0,0,0,0,0,0],"sum_hessian":[5.983784E2,2.1211948E2,3.862589E2,1.2174992E2,9.036956E1,1.4023875E2,2.4602016E2,1.07496994E2,1.4252926E1,4.7195423E1,4.3174137E1,8.450005E1,5.57387E1,1.1207725E2,1.3394292E2],"tree_param":{"num_deleted":"0","num_feature":"45","num_nodes":"15","size_leaf_vector":"1"}},{"base_weights":[1.7242859E-3,9.7858556E-2,-1.0227416E-1,4.64302E-2,7.678278E-1,-3.5419518E-1,-1.9868203E-2,-1.2393636E-2,1.0258712E-2,2.1091511E-2,1.22401856E-1,-1.3419837E-2,-6.057598E-2,2.1307785E-2,-1.3620518E-2],"categories":[],"categories_nodes":[],"categories_segments":[],"categories_sizes":[],"default_left":[0,0,0,0,0,0,0,0,0,0,0,0,0,0,0],"id":46,"left_children":[1,3,5,7,9,11,13,-1,-1,-1,-1,-1,-1,-1,-1],"loss_changes":[5.866445E0,1.04879875E1,5.8478756E0,2.7206416E0,5.3852167E0,3.8026485E0,5.784623E0,0E0,0E0,0E0,0E0,0E0,0E0,0E0,0E0],"parents":[2147483647,0,0,1,1,2,2,3,3,4,4,5,5,6,6],"right_children":[2,4,6,8,10,12,14,-1,-1,-1,-1,-1,-1,-1,-1],"split_conditions":[1.23765E3,9.155E1,2.10455E3,2.995E1,1E0,1.64275E3,3.26595E3,-1.2393636E-2,1.0258712E-2,2.1091511E-2,1.22401856E-1,-1.3419837E-2,-6.057598E-2,2.1307785E-2,-1.3620518E-2],"split_indices":[1,0,1,0,2,1,1,0,0,0,0,0,0,0,0],"split_type":[0,0,0,0,0,0,0,0,0,0,0,0,0,0,0],"sum_hessian":[5.857722E2,3.0441037E2,2.8136188E2,2.832055E2,2.1204845E1,6.894448E1,2.1241739E2,7.005923E1,2.1314629E2,9.877578E0,1.1327268E1,3.7188953E1,3.1755531E1,7.061216E1,1.4180524E2],"tree_param":{"num_deleted":"0","num_feature":"45","num_nodes":"15","size_leaf_vector":"1"}},{"base_weights":[-2.2577928E-2,1.04760796E-1,-1.6703963E-1,3.927033E-2,4.6042457E-1,-1.3338605E-1,-5.440947E-1,2.789555E-2,-6.3659074E-3,2.7257651E-2,1.1446573E-1,-2.3246331E-2,2.0019147E-4,-2.5687456E-2,-8.261415E-2],"categories":[],"categories_nodes":[],"categories_segments":[],"categories_sizes":[],"default_left":[0,0,0,0,0,0,0,0,0,0,0,0,0,0,0],"id":47,"left_children":[1,3,5,7,9,11,13,-1,-1,-1,-1,-1,-1,-1,-1],"loss_changes":[1.0784551E1,7.250098E0,3.4485912E0,6.5153794E0,6.0669537E0,3.391141E0,1.703732E0,0E0,0E0,0E0,0E0,0E0,0E0,0E0,0E0],"parents":[2147483647,0,0,1,1,2,2,3,3,4,4,5,5,6,6],"right_children":[2,4,6,8,10,12,14,-1,-1,-1,-1,-1,-1,-1,-1],"split_conditions":[1.27055E3,8.445E1,6.89145E3,8.215E1,1.02875E3,9.35E1,1E0,2.789555E-2,-6.3659074E-3,2.7257651E-2,1.1446573E-1,-2.3246331E-2,2.0019147E-4,-2.5687456E-2,-8.261415E-2],"split_indices":[1,0,1,1,1,0,2,0,0,0,0,0,0,0,0],"split_type":[0,0,0,0,0,0,0,0,0,0,0,0,0,0,0],"sum_hessian":[5.852824E2,3.1115018E2,2.7413226E2,2.6323447E2,4.7915707E1,2.5229121E2,2.1841064E1,7.882488E1,1.8440958E2,3.814314E1,9.772567E0,1.4547426E2,1.06816956E2,1.1294637E1,1.0546427E1],"tree_param":{"num_deleted":"0","num_feature":"45","num_nodes":"15","size_leaf_vector":"1"}},{"base_weights":[1.83107E-2,3.245837E-2,-2.0345415E-1,-1.0330329E-2,7.762484E-2,-4.0962285E-1,2.0560862E-2,-5.3047277E-3,8.447536E-3,1.1209718E-2,-3.3689772E-3,-2.5996406E-2,-5.9344627E-2,-2.165783E-2,3.776787E-2],"categories":[],"categories_nodes":[],"categories_segments":[],"categories_sizes":[],"default_left":[0,0,0,0,0,0,0,0,0,0,0,0,0,0,0],"id":48,"left_children":[1,3,5,7,9,11,13,-1,-1,-1,-1,-1,-1,-1,-1],"loss_changes":[1.8573905E0,1.0748279E0,1.6441544E0,1.1601961E0,1.0399344E0,4.322126E-1,1.5223793E0,0E0,0E0,0E0,0E0,0E0,0E0,0E0,0E0],"parents":[2147483647,0,0,1,1,2,2,3,3,4,4,5,5,6,6],"right_children":[2,4,6,8,10,12,14,-1,-1,-1,-1,-1,-1,-1,-1],"split_conditions":[1E0,1E0,1E0,1E0,1E0,1E0,1E0,-5.3047277E-3,8.447536E-3,1.1209718E-2,-3.3689772E-3,-2.5996406E-2,-5.9344627E-2,-2.165783E-2,3.776787E-2],"split_indices":[38,43,16,23,39,23,41,0,0,0,0,0,0,0,0],"split_type":[0,0,0,0,0,0,0,0,0,0,0,0,0,0,0],"sum_hessian":[5.90453E2,5.5544476E2,3.500823E1,2.8542838E2,2.7001642E2,1.8014547E1,1.6993681E1,1.9692113E2,8.850724E1,2.0616646E2,6.3849953E1,1.0595434E1,7.4191117E0,1.0330574E1,6.663106E0],"tree_param":{"num_deleted":"0","num_feature":"45","num_nodes":"15","size_leaf_vector":"1"}},{"base_weights":[-1.771649E-2,2.3656776E-2,-1.8420248E-1,-3.3903134E-1,4.183283E-2,-2.3373574E-1,3.7230324E-2,-4.9692918E-2,2.0315764E-3,2.9898126E-2,9.967374E-4,-9.038235E-3,-3.8568523E-2],"categories":[],"categories_nodes":[],"categories_segments":[],"categories_sizes":[],"default_left":[0,0,0,0,0,0,0,0,0,0,0,0,0],"id":49,"left_children":[1,3,5,7,9,11,-1,-1,-1,-1,-1,-1,-1],"loss_changes":[3.999454E0,3.0741467E0,3.2291565E0,1.2679839E0,3.632569E0,2.3008318E0,0E0,0E0,0E0,0E0,0E0,0E0,0E0],"parents":[2147483647,0,0,1,1,2,2,3,3,4,4,5,5],"right_children":[2,4,6,8,10,12,-1,-1,-1,-1,-1,-1,-1],"split_conditions":[1E0,2.48E1,1E0,1E0,4.94E1,1E0,3.7230324E-2,-4.9692918E-2,2.0315764E-3,2.9898126E-2,9.967374E-4,-9.038235E-3,-3.8568523E-2],"split_indices":[44,0,9,41,0,27,0,0,0,0,0,0,0],"split_type":[0,0,0,0,0,0,0,0,0,0,0,0,0],"sum_hessian":[5.7981866E2,4.6475247E2,1.1506622E2,2.1758255E1,4.429942E2,1.05927826E2,9.1383915E0,1.4983181E1,6.775073E0,4.838057E1,3.9461365E2,5.491597E1,5.101186E1],"tree_param":{"num_deleted":"0","num_feature":"45","num_nodes":"13","size_leaf_vector":"1"}},{"base_weights":[-4.6683345E-2,2.615372E-2,-2.0303445E-1,8.955094E-2,8.510986E-3,-2.3043959E-1,5.0810117E-2,-4.6392467E-2,3.7716855E-3,-4.516898E-3,-3.4318563E-2],"categories":[],"categories_nodes":[],"categories_segments":[],"categories_sizes":[],"default_left":[0,0,0,0,0,0,0,0,0,0,0],"id":50,"left_children":[1,3,5,-1,7,9,-1,-1,-1,-1,-1],"loss_changes":[6.724804E0,6.179262E0,3.7156014E0,0E0,5.4673705E0,3.7737036E0,0E0,0E0,0E0,0E0,0E0],"parents":[2147483647,0,0,1,1,2,2,4,4,5,5],"right_children":[2,4,6,-1,8,10,-1,-1,-1,-1,-1],"split_conditions":[1E0,2.425E1,1.0575E2,8.955094E-2,2.995E1,2.484E2,5.0810117E-2,-4.6392467E-2,3.7716855E-3,-4.516898E-3,-3.4318563E-2],"split_indices":[39,1,0,0,0,1,0,0,0,0,0],"split_type":[0,0,0,0,0,0,0,0,0,0,0],"sum_hessian":[5.897756E2,4.026262E2,1.871494E2,7.5135345E0,3.9511267E2,1.8053024E2,6.6191463E0,2.2570398E1,3.7254227E2,6.856338E1,1.11966866E2],"tree_param":{"num_deleted":"0","num_feature":"45","num_nodes":"11","size_leaf_vector":"1"}},{"base_weights":[2.3395903E-2,6.78532E-3,1.8413514E-1,-2.282307E-2,1.3918853E-1,-1.7716078E-2,2.860683E-1,1.9714565E-4,-7.972735E-3,-1.1797885E-2,2.5474919E-2,4.6635922E-2,-9.59977E-3],"categories":[],"categories_nodes":[],"categories_segments":[],"categories_sizes":[],"default_left":[0,0,0,0,0,0,0,0,0,0,0,0,0],"id":51,"left_children":[1,3,5,7,9,-1,11,-1,-1,-1,-1,-1,-1],"loss_changes":[1.5647982E0,2.0868154E0,2.046991E0,6.1401325E-1,2.906035E0,0E0,2.9847765E0,0E0,0E0,0E0,0E0,0E0,0E0],"parents":[2147483647,0,0,1,1,2,2,3,3,4,4,6,6],"right_children":[2,4,6,8,10,-1,12,-1,-1,-1,-1,-1,-1],"split_conditions":[1E0,1E0,1E0,1E0,1E0,-1.7716078E-2,1E0,1.9714565E-4,-7.972735E-3,-1.1797885E-2,2.5474919E-2,4.6635922E-2,-9.59977E-3],"split_indices":[10,41,6,23,16,0,39,0,0,0,0,0,0],"split_type":[0,0,0,0,0,0,0,0,0,0,0,0,0],"sum_hessian":[5.858067E2,5.3141235E2,5.4394352E1,4.3463242E2,9.677995E1,1.1888229E1,4.2506123E1,3.0306332E2,1.315691E2,3.0002426E1,6.677753E1,2.8803768E1,1.3702355E1],"tree_param":{"num_deleted":"0","num_feature":"45","num_nodes":"13","size_leaf_vector":"1"}},{"base_weights":[-2.431565E-2,-3.5731182E-3,-3.3749053E-1,7.934919E-2,-9.12404E-2,-5.5384636E-1,2.6631996E-2,-4.264803E-2,9.65036E-3,-3.7448239E-3,-2.6323274E-2,-3.982155E-2,-9.146651E-2],"categories":[],"categories_nodes":[],"categories_segments":[],"categories_sizes":[],"default_left":[0,0,0,0,0,0,0,0,0,0,0,0,0],"id":52,"left_children":[1,3,5,7,9,11,-1,-1,-1,-1,-1,-1,-1],"loss_changes":[3.8033113E0,3.9997377E0,4.825024E0,2.474186E0,2.469382E0,1.3305731E0,0E0,0E0,0E0,0E0,0E0,0E0,0E0],"parents":[2147483647,0,0,1,1,2,2,3,3,4,4,5,5],"right_children":[2,4,6,8,10,12,-1,-1,-1,-1,-1,-1,-1],"split_conditions":[1E0,1E0,1.0575E2,2.52E1,8.43E1,9.55E1,2.6631996E-2,-4.264803E-2,9.65036E-3,-3.7448239E-3,-2.6323274E-2,-3.982155E-2,-9.146651E-2],"split_indices":[38,12,0,0,0,0,0,0,0,0,0,0,0],"split_type":[0,0,0,0,0,0,0,0,0,0,0,0,0],"sum_hessian":[5.850744E2,5.492046E2,3.5869797E1,2.8226477E2,2.6693982E2,2.643798E1,9.431815E0,8.867235E0,2.7339752E2,2.038064E2,6.313342E1,1.9205816E1,7.232165E0],"tree_param":{"num_deleted":"0","num_feature":"45","num_nodes":"13","size_leaf_vector":"1"}},{"base_weights":[-5.165708E-2,2.5710126E-2,-3.1249863E-1,-8.369669E-3,4.152405E-1,-6.244766E-1,-1.24420926E-1,-2.8365436E-3,6.231463E-2,1.4023165E-2,6.442236E-2,-3.4203984E-2,-8.9586236E-2,5.2168358E-2,-1.924055E-2],"categories":[],"categories_nodes":[],"categories_segments":[],"categories_sizes":[],"default_left":[0,0,0,0,0,0,0,0,0,0,0,0,0,0,0],"id":53,"left_children":[1,3,5,7,9,11,13,-1,-1,-1,-1,-1,-1,-1,-1],"loss_changes":[1.1790163E1,5.987419E0,7.802576E0,5.250701E0,2.2397666E0,3.6899185E0,3.7399025E0,0E0,0E0,0E0,0E0,0E0,0E0,0E0,0E0],"parents":[2147483647,0,0,1,1,2,2,3,3,4,4,5,5,6,6],"right_children":[2,4,6,8,10,12,14,-1,-1,-1,-1,-1,-1,-1,-1],"split_conditions":[3.32705E3,9.6E1,9.55E1,3.0058E3,1E0,8.57E1,3.7892E3,-2.8365436E-3,6.231463E-2,1.4023165E-2,6.442236E-2,-3.4203984E-2,-8.9586236E-2,5.2168358E-2,-1.924055E-2],"split_indices":[1,0,0,1,21,0,1,0,0,0,0,0,0,0,0],"split_type":[0,0,0,0,0,0,0,0,0,0,0,0,0,0,0],"sum_hessian":[5.83534E2,4.5039484E2,1.3313916E2,4.146101E2,3.578475E1,4.963909E1,8.350008E1,4.0234805E2,1.2262053E1,1.6624691E1,1.916006E1,2.4878105E1,2.4760984E1,7.631916E0,7.586816E1],"tree_param":{"num_deleted":"0","num_feature":"45","num_nodes":"15","size_leaf_vector":"1"}},{"base_weights":[4.162737E-2,1.9459406E-1,-2.246558E-2,1.3746178E-1,7.5606734E-1,-1.8803662E-1,1.1471937E-1,5.0765455E-2,7.3845997E-3,1.2085395E-1,2.0132937E-2,-8.3806E-3,-3.8508378E-2,2.1490633E-2,-1.3218661E-2],"categories":[],"categories_nodes":[],"categories_segments":[],"categories_sizes":[],"default_left":[0,0,0,0,0,0,0,0,0,0,0,0,0,0,0],"id":54,"left_children":[1,3,5,7,9,11,13,-1,-1,-1,-1,-1,-1,-1,-1],"loss_changes":[5.66239E0,5.4181767E0,9.262279E0,3.640635E0,3.8035326E0,3.778287E0,5.5319347E0,0E0,0E0,0E0,0E0,0E0,0E0,0E0,0E0],"parents":[2147483647,0,0,1,1,2,2,3,3,4,4,5,5,6,6],"right_children":[2,4,6,8,10,12,14,-1,-1,-1,-1,-1,-1,-1,-1],"split_conditions":[3.5155E2,1E0,8.32E1,1E0,1E0,1E0,5.1495E3,5.0765455E-2,7.3845997E-3,1.2085395E-1,2.0132937E-2,-8.3806E-3,-3.8508378E-2,2.1490633E-2,-1.3218661E-2],"split_indices":[1,41,0,8,15,39,1,0,0,0,0,0,0,0,0],"split_type":[0,0,0,0,0,0,0,0,0,0,0,0,0,0,0],"sum_hessian":[5.768311E2,1.7002496E2,4.0680615E2,1.5488696E2,1.5137993E1,1.8424823E2,2.2255794E2,2.2201582E1,1.326854E2,8.012944E0,7.1250486E0,1.20971466E2,6.327676E1,1.5836359E2,6.419435E1],"tree_param":{"num_deleted":"0","num_feature":"45","num_nodes":"15","size_leaf_vector":"1"}},{"base_weights":[1.7648509E-2,-2.5043169E-2,1.7442247E-1,-5.2534126E-2,2.2523788E-1,3.3129025E-1,1.4643759E-2,2.6275853E-2,-7.1104183E-3,-7.1625495E-3,7.470365E-2,9.331503E-2,1.9764028E-2,-2.7831897E-2,2.4220405E-2],"categories":[],"categories_nodes":[],"categories_segments":[],"categories_sizes":[],"default_left":[0,0,0,0,0,0,0,0,0,0,0,0,0,0,0],"id":55,"left_children":[1,3,5,7,9,11,13,-1,-1,-1,-1,-1,-1,-1,-1],"loss_changes":[3.9160473E0,3.171291E0,3.1361604E0,2.438738E0,7.09431E0,4.9885726E0,4.2042823E0,0E0,0E0,0E0,0E0,0E0,0E0,0E0,0E0],"parents":[2147483647,0,0,1,1,2,2,3,3,4,4,5,5,6,6],"right_children":[2,4,6,8,10,12,14,-1,-1,-1,-1,-1,-1,-1,-1],"split_conditions":[1E0,1.015E2,8.57E1,1.99E1,1E0,1E0,9.6E1,2.6275853E-2,-7.1104183E-3,-7.1625495E-3,7.470365E-2,9.331503E-2,1.9764028E-2,-2.7831897E-2,2.4220405E-2],"split_indices":[9,0,0,0,37,18,0,0,0,0,0,0,0,0,0],"split_type":[0,0,0,0,0,0,0,0,0,0,0,0,0,0,0],"sum_hessian":[5.842746E2,4.595524E2,1.2472222E2,4.1442667E2,4.512572E1,6.266357E1,6.2058647E1,2.2685467E1,3.917412E2,2.9037167E1,1.6088554E1,1.0843136E1,5.1820435E1,2.7081808E1,3.497684E1],"tree_param":{"num_deleted":"0","num_feature":"45","num_nodes":"15","size_leaf_vector":"1"}},{"base_weights":[3.2731082E-2,4.692196E-2,-2.1319734E-1,3.386367E-2,9.631348E-2,-4.2918563E-1,1.477985E-2,-2.0124631E-2,4.830805E-3,-5.473527E-2,-1.4812258E-2],"categories":[],"categories_nodes":[],"categories_segments":[],"categories_sizes":[],"default_left":[0,0,0,0,0,0,0,0,0,0,0],"id":56,"left_children":[1,3,5,7,-1,9,-1,-1,-1,-1,-1],"loss_changes":[2.0417335E0,6.589974E0,2.5212243E0,1.8554561E0,0E0,6.271832E-1,0E0,0E0,0E0,0E0,0E0],"parents":[2147483647,0,0,1,1,2,2,3,3,5,5],"right_children":[2,4,6,8,-1,10,-1,-1,-1,-1,-1],"split_conditions":[1.065E2,1.0575E2,1E0,2.01E1,9.631348E-2,1E0,1.477985E-2,-2.0124631E-2,4.830805E-3,-5.473527E-2,-1.4812258E-2],"split_indices":[0,0,37,0,0,41,0,0,0,0,0],"split_type":[0,0,0,0,0,0,0,0,0,0,0],"sum_hessian":[5.831007E2,5.51672E2,3.142869E1,5.4443097E2,7.241004E0,1.960458E1,1.182411E1,3.1137772E1,5.132932E2,1.34683695E1,6.1362114E0],"tree_param":{"num_deleted":"0","num_feature":"45","num_nodes":"11","size_leaf_vector":"1"}},{"base_weights":[2.2955356E-2,4.224697E-2,-2.891758E-1,9.443692E-4,2.1290526E-1,-5.038118E-1,2.5087828E-2,4.971908E-3,-4.320092E-2,5.013376E-2,1.2419456E-2,-3.231654E-2,-8.9532174E-2],"categories":[],"categories_nodes":[],"categories_segments":[],"categories_sizes":[],"default_left":[0,0,0,0,0,0,0,0,0,0,0,0,0],"id":57,"left_children":[1,3,5,7,9,11,-1,-1,-1,-1,-1,-1,-1],"loss_changes":[3.5472674E0,3.9068804E0,4.0385313E0,9.4455385E0,2.7324305E0,1.6027865E0,0E0,0E0,0E0,0E0,0E0,0E0,0E0],"parents":[2147483647,0,0,1,1,2,2,3,3,4,4,5,5],"right_children":[2,4,6,8,10,12,-1,-1,-1,-1,-1,-1,-1],"split_conditions":[1E0,9.6E1,1.0575E2,3.26595E3,2.3791E3,9.43E1,2.5087828E-2,4.971908E-3,-4.320092E-2,5.013376E-2,1.2419456E-2,-3.231654E-2,-8.9532174E-2],"split_indices":[38,0,0,1,1,0,0,0,0,0,0,0,0],"split_type":[0,0,0,0,0,0,0,0,0,0,0,0,0],"sum_hessian":[5.8758453E2,5.537893E2,3.3795242E1,4.46283E2,1.07506325E2,2.4207792E1,9.58745E0,4.0149487E2,4.4788124E1,2.4740345E1,8.276598E1,1.7189236E1,7.0185566E0],"tree_param":{"num_deleted":"0","num_feature":"45","num_nodes":"13","size_leaf_vector":"1"}},{"base_weights":[7.7574784E-3,-2.0364244E-1,5.837287E-2,-1.24034844E-1,-6.391272E-2,6.719912E-2,3.845936E-2,4.3341022E-2,-1.7693205E-2,-4.348542E-2,5.5879066E-3],"categories":[],"categories_nodes":[],"categories_segments":[],"categories_sizes":[],"default_left":[0,0,0,0,0,0,0,0,0,0,0],"id":58,"left_children":[1,3,5,7,-1,-1,9,-1,-1,-1,-1],"loss_changes":[6.162032E0,3.8172417E0,5.6638966E0,2.830155E0,0E0,0E0,3.7265627E0,0E0,0E0,0E0,0E0],"parents":[2147483647,0,0,1,1,2,2,3,3,6,6],"right_children":[2,4,6,8,-1,-1,10,-1,-1,-1,-1],"split_conditions":[4.505E1,4.335E1,4.87E1,1E0,-6.391272E-2,6.719912E-2,5.015E1,4.3341022E-2,-1.7693205E-2,-4.348542E-2,5.5879066E-3],"split_indices":[0,0,0,8,0,0,0,0,0,0,0],"split_type":[0,0,0,0,0,0,0,0,0,0,0],"sum_hessian":[5.7483057E2,1.1075215E2,4.640784E2,9.417851E1,1.6573637E1,1.4072522E1,4.500059E2,7.850552E0,8.632796E1,1.5548675E1,4.344572E2],"tree_param":{"num_deleted":"0","num_feature":"45","num_nodes":"11","size_leaf_vector":"1"}},{"base_weights":[2.4439653E-2,-4.9673546E-2,7.898149E-2,4.1610356E-2,-8.615839E-2,-2.2468876E-2,1.254551E-1,-1.5362605E-2,5.8314543E-2,-7.4677094E-4,-2.381525E-2,-2.5440872E-2,5.5029583E-3,7.324741E-3,2.1489095E-2],"categories":[],"categories_nodes":[],"categories_segments":[],"categories_sizes":[],"default_left":[0,0,0,0,0,0,0,0,0,0,0,0,0,0,0],"id":59,"left_children":[1,3,5,7,9,11,13,-1,-1,-1,-1,-1,-1,-1,-1],"loss_changes":[2.3924432E0,8.377824E-1,1.6084795E0,7.658703E0,2.145993E0,1.9395355E0,1.0840149E0,0E0,0E0,0E0,0E0,0E0,0E0,0E0,0E0],"parents":[2147483647,0,0,1,1,2,2,3,3,4,4,5,5,6,6],"right_children":[2,4,6,8,10,12,14,-1,-1,-1,-1,-1,-1,-1,-1],"split_conditions":[1E0,1E0,1E0,1E0,1E0,1E0,1E0,-1.5362605E-2,5.8314543E-2,-7.4677094E-4,-2.381525E-2,-2.5440872E-2,5.5029583E-3,7.324741E-3,2.1489095E-2],"split_indices":[21,36,24,24,35,18,14,0,0,0,0,0,0,0,0],"split_type":[0,0,0,0,0,0,0,0,0,0,0,0,0,0,0],"sum_hessian":[5.9087103E2,2.5051196E2,3.4035904E2,7.1514565E1,1.7899739E2,1.0701251E2,2.3334654E2,5.2827236E1,1.8687332E1,1.1828383E2,6.071356E1,2.65153E1,8.0497215E1,1.4791275E2,8.5433784E1],"tree_param":{"num_deleted":"0","num_feature":"45","num_nodes":"15","size_leaf_vector":"1"}},{"base_weights":[-6.4070993E-3,-1.08057834E-1,2.303232E-2,-2.513551E-1,2.9147055E-2,9.217941E-2,-5.574819E-2,-1.4104006E-2,-7.156005E-2,2.5873212E-2,-3.1315626E-3,1.7993975E-2,-5.3440646E-4,-8.94793E-3,9.575582E-3],"categories":[],"categories_nodes":[],"categories_segments":[],"categories_sizes":[],"default_left":[0,0,0,0,0,0,0,0,0,0,0,0,0,0,0],"id":60,"left_children":[1,3,5,7,9,11,13,-1,-1,-1,-1,-1,-1,-1,-1],"loss_changes":[1.7247739E0,2.548386E0,2.4376462E0,3.1944628E0,9.281078E-1,2.0395901E0,1.0736997E0,0E0,0E0,0E0,0E0,0E0,0E0,0E0,0E0],"parents":[2147483647,0,0,1,1,2,2,3,3,4,4,5,5,6,6],"right_children":[2,4,6,8,10,12,14,-1,-1,-1,-1,-1,-1,-1,-1],"split_conditions":[1E0,1E0,1E0,1E0,1E0,1E0,1E0,-1.4104006E-2,-7.156005E-2,2.5873212E-2,-3.1315626E-3,1.7993975E-2,-5.3440646E-4,-8.94793E-3,9.575582E-3],"split_indices":[6,21,12,42,36,30,29,0,0,0,0,0,0,0,0],"split_type":[0,0,0,0,0,0,0,0,0,0,0,0,0,0,0],"sum_hessian":[5.754422E2,1.289294E2,4.465128E2,6.286108E1,6.606832E1,2.3775012E2,2.0876266E2,5.131855E1,1.154253E1,1.3430662E1,5.2637657E1,1.24916534E2,1.12833595E2,1.7091463E2,3.784803E1],"tree_param":{"num_deleted":"0","num_feature":"45","num_nodes":"15","size_leaf_vector":"1"}},{"base_weights":[4.818847E-2,-1.0124034E-2,1.2672299E-1,5.698962E-3,-4.9449198E-2,1.7686075E-1,-4.6580415E-2,1.7885815E-2,-3.3717162E-3,1.4327413E-2,5.1475365E-2,-2.0771293E-2,2.8090289E-2],"categories":[],"categories_nodes":[],"categories_segments":[],"categories_sizes":[],"default_left":[0,0,0,0,0,0,0,0,0,0,0,0,0],"id":61,"left_children":[1,3,5,7,-1,9,11,-1,-1,-1,-1,-1,-1],"loss_changes":[2.6136007E0,2.5145297E0,2.116999E0,2.1736352E0,0E0,2.1046934E0,2.9292905E0,0E0,0E0,0E0,0E0,0E0,0E0],"parents":[2147483647,0,0,1,1,2,2,3,3,5,5,6,6],"right_children":[2,4,6,8,-1,10,12,-1,-1,-1,-1,-1,-1],"split_conditions":[1E0,1E0,1E0,1E0,-4.9449198E-2,1E0,1E0,1.7885815E-2,-3.3717162E-3,1.4327413E-2,5.1475365E-2,-2.0771293E-2,2.8090289E-2],"split_indices":[32,38,7,8,0,10,20,0,0,0,0,0,0],"split_type":[0,0,0,0,0,0,0,0,0,0,0,0,0],"sum_hessian":[5.7007184E2,3.274059E2,2.4266594E2,3.1752725E2,9.878643E0,1.8820638E2,5.4459557E1,5.8548534E1,2.5897873E2,1.7183769E2,1.6368694E1,3.6622803E1,1.7836754E1],"tree_param":{"num_deleted":"0","num_feature":"45","num_nodes":"13","size_leaf_vector":"1"}},{"base_weights":[-1.8882882E-2,7.6853454E-2,-1.15303956E-1,2.4873202E-1,-1.4500885E-2,-9.674129E-2,-8.837206E-2,-2.837987E-2,3.7836887E-2,1.2179287E-2,-1.40321525E-2,-1.2076808E-2,6.288939E-2],"categories":[],"categories_nodes":[],"categories_segments":[],"categories_sizes":[],"default_left":[0,0,0,0,0,0,0,0,0,0,0,0,0],"id":62,"left_children":[1,3,5,7,9,11,-1,-1,-1,-1,-1,-1,-1],"loss_changes":[5.295664E0,4.5227203E0,4.033581E0,6.953825E0,3.2405732E0,4.9127235E0,0E0,0E0,0E0,0E0,0E0,0E0,0E0],"parents":[2147483647,0,0,1,1,2,2,3,3,4,4,5,5],"right_children":[2,4,6,8,10,12,-1,-1,-1,-1,-1,-1,-1],"split_conditions":[1.184E3,1E0,7.72635E3,2.995E1,1E0,7.17315E3,-8.837206E-2,-2.837987E-2,3.7836887E-2,1.2179287E-2,-1.40321525E-2,-1.2076808E-2,6.288939E-2],"split_indices":[1,12,1,0,3,1,0,0,0,0,0,0,0],"split_type":[0,0,0,0,0,0,0,0,0,0,0,0,0],"sum_hessian":[5.727025E2,2.8742258E2,2.8527997E2,9.945038E1,1.879722E2,2.7910065E2,6.1792974E0,1.9353638E1,8.009673E1,9.023844E1,9.773375E1,2.7055887E2,8.541797E0],"tree_param":{"num_deleted":"0","num_feature":"45","num_nodes":"13","size_leaf_vector":"1"}},{"base_weights":[-1.8550538E-3,-1.3369128E-1,8.72872E-2,-2.0523386E-1,8.734135E-2,-4.9853725E-3,1.4753684E-1,-1.7158221E-2,-6.548123E-2,-4.6197392E-2,2.9424295E-2,1.1610649E-2,-1.37675945E-2,-1.4103012E-2,2.0279523E-2],"categories":[],"categories_nodes":[],"categories_segments":[],"categories_sizes":[],"default_left":[0,0,0,0,0,0,0,0,0,0,0,0,0,0,0],"id":63,"left_children":[1,3,5,7,9,11,13,-1,-1,-1,-1,-1,-1,-1,-1],"loss_changes":[6.849312E0,3.7266932E0,1.9334402E0,2.633205E0,6.6416845E0,2.2227392E0,3.3688893E0,0E0,0E0,0E0,0E0,0E0,0E0,0E0,0E0],"parents":[2147483647,0,0,1,1,2,2,3,3,4,4,5,5,6,6],"right_children":[2,4,6,8,10,12,14,-1,-1,-1,-1,-1,-1,-1,-1],"split_conditions":[1E0,1E0,1E0,1E0,1E0,1E0,1E0,-1.7158221E-2,-6.548123E-2,-4.6197392E-2,2.9424295E-2,1.1610649E-2,-1.37675945E-2,-1.4103012E-2,2.0279523E-2],"split_indices":[16,10,24,38,27,4,27,0,0,0,0,0,0,0,0],"split_type":[0,0,0,0,0,0,0,0,0,0,0,0,0,0,0],"sum_hessian":[5.8181555E2,2.3460239E2,3.472132E2,1.7726274E2,5.733964E1,1.3733803E2,2.0987517E2,1.6556107E2,1.1701676E1,1.5519526E1,4.1820118E1,7.1840096E1,6.549793E1,3.360566E1,1.762695E2],"tree_param":{"num_deleted":"0","num_feature":"45","num_nodes":"15","size_leaf_vector":"1"}},{"base_weights":[-1.2562756E-2,3.422636E-1,-3.3537015E-2,-7.6943426E-3,4.6910664E-1,-1.0951567E-1,6.063683E-2,8.549783E-2,2.9965444E-2,-9.015191E-3,-5.731079E-2,-5.6397803E-2,8.487009E-3],"categories":[],"categories_nodes":[],"categories_segments":[],"categories_sizes":[],"default_left":[0,0,0,0,0,0,0,0,0,0,0,0,0],"id":64,"left_children":[1,3,5,-1,7,9,11,-1,-1,-1,-1,-1,-1],"loss_changes":[4.2921767E0,1.7297201E0,3.8976948E0,0E0,1.4923978E0,2.6799324E0,3.7074947E0,0E0,0E0,0E0,0E0,0E0,0E0],"parents":[2147483647,0,0,1,1,2,2,4,4,5,5,6,6],"right_children":[2,4,6,-1,8,10,12,-1,-1,-1,-1,-1,-1],"split_conditions":[4.02E1,1.975E1,1E0,-7.6943426E-3,2.02E1,4.87105E3,5.165E1,8.549783E-2,2.9965444E-2,-9.015191E-3,-5.731079E-2,-5.6397803E-2,8.487009E-3],"split_indices":[1,1,14,0,1,1,0,0,0,0,0,0,0],"split_type":[0,0,0,0,0,0,0,0,0,0,0,0,0],"sum_hessian":[5.7546216E2,3.1690336E1,5.4377185E2,7.407101E0,2.4283234E1,3.0091486E2,2.4285696E2,6.792586E0,1.7490648E1,2.894232E2,1.1491664E1,8.654327E0,2.3420264E2],"tree_param":{"num_deleted":"0","num_feature":"45","num_nodes":"13","size_leaf_vector":"1"}},{"base_weights":[8.836607E-3,1.8727022E-1,-4.2636048E-2,8.3386385E-1,9.6674986E-2,-7.351507E-2,2.8865522E-1,4.8465308E-2,1.0300069E-1,-4.1228913E-2,1.5334117E-2,-9.006977E-4,-2.3988798E-2,6.471496E-2,-3.12001E-2],"categories":[],"categories_nodes":[],"categories_segments":[],"categories_sizes":[],"default_left":[0,0,0,0,0,0,0,0,0,0,0,0,0,0,0],"id":65,"left_children":[1,3,5,7,9,11,13,-1,-1,-1,-1,-1,-1,-1,-1],"loss_changes":[5.2918124E0,7.515803E0,4.585899E0,8.3170795E-1,3.310984E0,4.3939486E0,8.33396E0,0E0,0E0,0E0,0E0,0E0,0E0,0E0,0E0],"parents":[2147483647,0,0,1,1,2,2,3,3,4,4,5,5,6,6],"right_children":[2,4,6,8,10,12,14,-1,-1,-1,-1,-1,-1,-1,-1],"split_conditions":[1.936E2,1E0,1.055E2,4.905E1,1.975E1,3.08875E3,6.9946E3,4.8465308E-2,1.0300069E-1,-4.1228913E-2,1.5334117E-2,-9.006977E-4,-2.3988798E-2,6.471496E-2,-3.12001E-2],"split_indices":[1,8,0,0,0,1,1,0,0,0,0,0,0,0,0],"split_type":[0,0,0,0,0,0,0,0,0,0,0,0,0,0,0],"sum_hessian":[5.752361E2,1.2849162E2,4.4674445E2,1.5286576E1,1.1320504E2,4.090104E2,3.7734024E1,6.122178E0,9.164398E0,1.1026791E1,1.0217825E2,2.9511282E2,1.138976E2,2.3606232E1,1.4127793E1],"tree_param":{"num_deleted":"0","num_feature":"45","num_nodes":"15","size_leaf_vector":"1"}},{"base_weights":[5.7106838E-2,2.872329E-1,1.8630458E-2,-6.917946E-2,3.7546206E-1,-1.0155775E-1,1.1519125E-1,1.2193825E-2,6.2021624E-2,-1.5364284E-2,2.1036224E-2,2.8798312E-2,-5.0331946E-3],"categories":[],"categories_nodes":[],"categories_segments":[],"categories_sizes":[],"default_left":[0,0,0,0,0,0,0,0,0,0,0,0,0],"id":66,"left_children":[1,3,5,-1,7,9,11,-1,-1,-1,-1,-1,-1],"loss_changes":[5.044758E0,7.1803274E0,5.680045E0,0E0,4.6283617E0,3.5591624E0,7.7679977E0,0E0,0E0,0E0,0E0,0E0,0E0],"parents":[2147483647,0,0,1,1,2,2,4,4,5,5,6,6],"right_children":[2,4,6,-1,8,10,12,-1,-1,-1,-1,-1,-1],"split_conditions":[8.215E1,1.96E1,7.895E1,-6.917946E-2,1E0,2.3393E3,2.80765E3,1.2193825E-2,6.2021624E-2,-1.5364284E-2,2.1036224E-2,2.8798312E-2,-5.0331946E-3],"split_indices":[1,0,0,0,40,1,1,0,0,0,0,0,0],"split_type":[0,0,0,0,0,0,0,0,0,0,0,0,0],"sum_hessian":[5.6954694E2,8.112258E1,4.8842432E2,6.4235654E0,7.469901E1,2.1757951E2,2.7084482E2,3.7060123E1,3.7638893E1,1.8666371E2,3.0915802E1,1.3233188E2,1.3851294E2],"tree_param":{"num_deleted":"0","num_feature":"45","num_nodes":"13","size_leaf_vector":"1"}},{"base_weights":[-2.1247592E-2,5.0293696E-1,-4.0962867E-2,1.1744818E-2,8.813619E-2,-1.4029239E-2,-4.3099275E-1,2.8440321E-3,-2.418423E-2,-2.8446153E-2,-7.298272E-2],"categories":[],"categories_nodes":[],"categories_segments":[],"categories_sizes":[],"default_left":[0,0,0,0,0,0,0,0,0,0,0],"id":67,"left_children":[1,3,5,-1,-1,7,9,-1,-1,-1,-1],"loss_changes":[5.8577185E0,2.945674E0,5.730257E0,0E0,0E0,4.9477525E0,1.4391785E0,0E0,0E0,0E0,0E0],"parents":[2147483647,0,0,1,1,2,2,5,5,6,6],"right_children":[2,4,6,-1,-1,8,10,-1,-1,-1,-1],"split_conditions":[2.425E1,2E1,1E0,1.1744818E-2,8.813619E-2,1E0,4.0185E2,2.8440321E-3,-2.418423E-2,-2.8446153E-2,-7.298272E-2],"split_indices":[1,1,25,0,0,44,1,0,0,0,0],"split_type":[0,0,0,0,0,0,0,0,0,0,0],"sum_hessian":[5.6531836E2,2.0047438E1,5.4527094E2,1.0255591E1,9.791845E0,5.1053387E2,3.4737083E1,4.306824E2,7.985146E1,2.3962973E1,1.077411E1],"tree_param":{"num_deleted":"0","num_feature":"45","num_nodes":"11","size_leaf_vector":"1"}},{"base_weights":[-3.245105E-2,-9.016417E-2,4.4270217E-2,-1.4810462E-1,5.1208187E-2,1.1738504E-1,-1.10127935E-2,-1.2587959E-2,-4.3197904E-2,-4.783886E-3,4.9565874E-2,5.694735E-3,7.058101E-2,-3.3188824E-2,1.9626734E-3],"categories":[],"categories_nodes":[],"categories_segments":[],"categories_sizes":[],"default_left":[0,0,0,0,0,0,0,0,0,0,0,0,0,0,0],"id":68,"left_children":[1,3,5,7,9,11,13,-1,-1,-1,-1,-1,-1,-1,-1],"loss_changes":[2.489195E0,2.6310034E0,9.767257E-1,1.4089355E0,4.132712E0,3.6790366E0,1.3596811E0,0E0,0E0,0E0,0E0,0E0,0E0,0E0,0E0],"parents":[2147483647,0,0,1,1,2,2,3,3,4,4,5,5,6,6],"right_children":[2,4,6,8,10,12,14,-1,-1,-1,-1,-1,-1,-1,-1],"split_conditions":[1E0,1E0,1E0,1E0,1E0,1E0,1E0,-1.2587959E-2,-4.3197904E-2,-4.783886E-3,4.9565874E-2,5.694735E-3,7.058101E-2,-3.3188824E-2,1.9626734E-3],"split_indices":[14,32,32,37,37,37,16,0,0,0,0,0,0,0,0],"split_type":[0,0,0,0,0,0,0,0,0,0,0,0,0,0,0],"sum_hessian":[5.6122046E2,3.202367E2,2.409838E2,2.2712665E2,9.3110054E1,1.0351622E2,1.3746758E2,2.1130492E2,1.582173E1,7.650654E1,1.6603514E1,9.437161E1,9.1446085E0,1.1553752E1,1.2591382E2],"tree_param":{"num_deleted":"0","num_feature":"45","num_nodes":"15","size_leaf_vector":"1"}},{"base_weights":[-4.504075E-3,-7.510238E-2,7.514358E-2,-2.108528E-1,-3.0552993E-2,4.373848E-2,6.0597412E-2,-6.894781E-3,-6.1107136E-2,7.6043843E-3,-9.306725E-3,-2.9730469E-2,9.193698E-3],"categories":[],"categories_nodes":[],"categories_segments":[],"categories_sizes":[],"default_left":[0,0,0,0,0,0,0,0,0,0,0,0,0],"id":69,"left_children":[1,3,5,7,9,-1,11,-1,-1,-1,-1,-1,-1],"loss_changes":[3.2074902E0,1.8254195E0,1.3991519E0,4.217256E0,1.5245368E0,0E0,2.9106646E0,0E0,0E0,0E0,0E0,0E0,0E0],"parents":[2147483647,0,0,1,1,2,2,3,3,4,4,6,6],"right_children":[2,4,6,8,10,-1,12,-1,-1,-1,-1,-1,-1],"split_conditions":[1E0,1E0,2.51E1,8.97E1,5.515E1,4.373848E-2,4.505E1,-6.894781E-3,-6.1107136E-2,7.6043843E-3,-9.306725E-3,-2.9730469E-2,9.193698E-3],"split_indices":[43,6,0,0,0,0,0,0,0,0,0,0,0],"split_type":[0,0,0,0,0,0,0,0,0,0,0,0,0],"sum_hessian":[5.6942255E2,3.0187463E2,2.6754794E2,7.4127525E1,2.2774712E2,9.767782E0,2.5778015E2,5.5156788E1,1.8970737E1,8.414987E1,1.4359724E2,2.0413372E1,2.3736678E2],"tree_param":{"num_deleted":"0","num_feature":"45","num_nodes":"13","size_leaf_vector":"1"}},{"base_weights":[-1.2636061E-2,2.514024E-1,-2.9980656E-2,-6.679963E-2,5.0147027E-1,-6.812507E-2,-2.0064222E-2,-2.4307897E-2,5.264623E-3,8.791937E-2,2.726971E-2,-1.6382657E-2,4.0802275E-5],"categories":[],"categories_nodes":[],"categories_segments":[],"categories_sizes":[],"default_left":[0,0,0,0,0,0,0,0,0,0,0,0,0],"id":70,"left_children":[1,3,5,7,9,-1,11,-1,-1,-1,-1,-1,-1],"loss_changes":[2.6062775E0,2.8083146E0,3.4399204E0,3.4074828E-1,1.5827198E0,0E0,1.5487318E0,0E0,0E0,0E0,0E0,0E0,0E0],"parents":[2147483647,0,0,1,1,2,2,3,3,4,4,6,6],"right_children":[2,4,6,8,10,-1,12,-1,-1,-1,-1,-1,-1],"split_conditions":[2.025E1,1.975E1,2.05E1,1.935E1,1.995E1,-6.812507E-2,4.505E1,-2.4307897E-2,5.264623E-3,8.791937E-2,2.726971E-2,-1.6382657E-2,4.0802275E-5],"split_indices":[0,0,0,0,0,0,0,0,0,0,0,0,0],"split_type":[0,0,0,0,0,0,0,0,0,0,0,0,0],"sum_hessian":[5.6777795E2,3.4582214E1,5.3319574E2,1.5379195E1,1.9203018E1,7.4891634E0,5.257066E2,6.0027514E0,9.376445E0,6.7072515E0,1.2495767E1,6.5094185E1,4.606124E2],"tree_param":{"num_deleted":"0","num_feature":"45","num_nodes":"13","size_leaf_vector":"1"}},{"base_weights":[-3.2400925E-2,-7.4136645E-2,1.1793793E-1,-4.3049246E-2,-2.5688553E-1,3.6011867E-2,3.880813E-1,3.1388511E-3,-1.1615099E-2,-4.3724403E-2,-7.395055E-3,1.4392949E-2,-7.998424E-3,1.4012799E-2,6.7747526E-2],"categories":[],"categories_nodes":[],"categories_segments":[],"categories_sizes":[],"default_left":[0,0,0,0,0,0,0,0,0,0,0,0,0,0,0],"id":71,"left_children":[1,3,5,7,9,11,13,-1,-1,-1,-1,-1,-1,-1,-1],"loss_changes":[3.5274205E0,2.4929926E0,2.6974707E0,2.050304E0,2.0900168E0,1.1863782E0,1.9892716E0,0E0,0E0,0E0,0E0,0E0,0E0,0E0,0E0],"parents":[2147483647,0,0,1,1,2,2,3,3,4,4,5,5,6,6],"right_children":[2,4,6,8,10,12,14,-1,-1,-1,-1,-1,-1,-1,-1],"split_conditions":[1E0,1E0,1E0,1E0,1E0,1E0,1E0,3.1388511E-3,-1.1615099E-2,-4.3724403E-2,-7.395055E-3,1.4392949E-2,-7.998424E-3,1.4012799E-2,6.7747526E-2],"split_indices":[20,42,42,12,2,35,29,0,0,0,0,0,0,0,0],"split_type":[0,0,0,0,0,0,0,0,0,0,0,0,0,0,0],"sum_hessian":[5.609867E2,4.3928873E2,1.2169796E2,3.7595312E2,6.3335583E1,9.381381E1,2.7884148E1,1.8641576E2,1.8953738E2,3.1542374E1,3.1793207E1,4.8536865E1,4.5276943E1,1.5416966E1,1.2467182E1],"tree_param":{"num_deleted":"0","num_feature":"45","num_nodes":"15","size_leaf_vector":"1"}},{"base_weights":[5.3685717E-2,3.8633338E-1,4.097004E-2,4.7305166E-3,6.9405295E-2,-1.5064424E-1,7.86026E-2,-2.3263045E-2,3.2080088E-2,3.7113268E-2,4.561332E-3],"categories":[],"categories_nodes":[],"categories_segments":[],"categories_sizes":[],"default_left":[0,0,0,0,0,0,0,0,0,0,0],"id":72,"left_children":[1,3,5,-1,-1,7,9,-1,-1,-1,-1],"loss_changes":[2.420325E0,2.1824632E0,3.997148E0,0E0,0E0,3.5558808E0,4.4593077E0,0E0,0E0,0E0,0E0],"parents":[2147483647,0,0,1,1,2,2,5,5,6,6],"right_children":[2,4,6,-1,-1,8,10,-1,-1,-1,-1],"split_conditions":[2.425E1,2E1,4.505E1,4.7305166E-3,6.9405295E-2,1E0,1.1825E2,-2.3263045E-2,3.2080088E-2,3.7113268E-2,4.561332E-3],"split_indices":[1,1,0,0,0,41,1,0,0,0,0],"split_type":[0,0,0,0,0,0,0,0,0,0,0],"sum_hessian":[5.735735E2,2.0577074E1,5.529964E2,1.0064945E1,1.0512129E1,9.053195E1,4.6246445E2,7.733616E1,1.319579E1,4.6348392E1,4.1611606E2],"tree_param":{"num_deleted":"0","num_feature":"45","num_nodes":"11","size_leaf_vector":"1"}},{"base_weights":[7.01218E-3,3.8186345E-2,-6.2390346E-2,-7.584812E-3,8.205233E-2,7.970672E-3,-2.4779582E-1,6.1539332E-3,-6.806237E-3,3.460281E-3,2.734294E-2,-6.800967E-3,2.8513948E-2,-4.0995896E-2,2.0031583E-2],"categories":[],"categories_nodes":[],"categories_segments":[],"categories_sizes":[],"default_left":[0,0,0,0,0,0,0,0,0,0,0,0,0,0,0],"id":73,"left_children":[1,3,5,7,9,11,13,-1,-1,-1,-1,-1,-1,-1,-1],"loss_changes":[1.2172294E0,7.796423E-1,2.2760966E0,7.980911E-1,1.7954682E0,2.6822898E0,3.528571E0,0E0,0E0,0E0,0E0,0E0,0E0,0E0,0E0],"parents":[2147483647,0,0,1,1,2,2,3,3,4,4,5,5,6,6],"right_children":[2,4,6,8,10,12,14,-1,-1,-1,-1,-1,-1,-1,-1],"split_conditions":[1E0,1E0,1E0,1E0,1E0,1E0,1E0,6.1539332E-3,-6.806237E-3,3.460281E-3,2.734294E-2,-6.800967E-3,2.8513948E-2,-4.0995896E-2,2.0031583E-2],"split_indices":[39,43,26,21,29,35,7,0,0,0,0,0,0,0,0],"split_type":[0,0,0,0,0,0,0,0,0,0,0,0,0,0,0],"sum_hessian":[5.615528E2,3.8765234E2,1.7390044E2,1.899089E2,1.9774342E2,1.2640753E2,4.749291E1,8.8615326E1,1.0129359E2,1.5892932E2,3.8814106E1,9.950698E1,2.6900555E1,3.4904278E1,1.2588628E1],"tree_param":{"num_deleted":"0","num_feature":"45","num_nodes":"15","size_leaf_vector":"1"}},{"base_weights":[2.650808E-2,2.5015312E-1,-1.047698E-2,1.2792937E-1,4.280031E-1,-1.07595325E-1,9.526323E-2,3.64605E-2,-2.388679E-2,6.990593E-2,6.336146E-3,-7.83E-3,-7.104492E-2,4.0008905E-3,2.8675849E-2],"categories":[],"categories_nodes":[],"categories_segments":[],"categories_sizes":[],"default_left":[0,0,0,0,0,0,0,0,0,0,0,0,0,0,0],"id":74,"left_children":[1,3,5,7,9,11,13,-1,-1,-1,-1,-1,-1,-1,-1],"loss_changes":[4.730205E0,1.7365999E0,5.0479608E0,4.280768E0,3.2236896E0,4.4968767E0,2.484584E0,0E0,0E0,0E0,0E0,0E0,0E0,0E0,0E0],"parents":[2147483647,0,0,1,1,2,2,3,3,4,4,5,5,6,6],"right_children":[2,4,6,8,10,12,14,-1,-1,-1,-1,-1,-1,-1,-1],"split_conditions":[8.215E1,5.075E1,1E0,4.02E1,6.99E1,4.82055E3,1E0,3.64605E-2,-2.388679E-2,6.990593E-2,6.336146E-3,-7.83E-3,-7.104492E-2,4.0008905E-3,2.8675849E-2],"split_indices":[1,1,32,1,0,1,37,0,0,0,0,0,0,0,0],"split_type":[0,0,0,0,0,0,0,0,0,0,0,0,0,0,0],"sum_hessian":[5.712077E2,8.064903E1,4.905587E2,4.830919E1,3.2339844E1,2.5569958E2,2.3485909E2,2.936466E1,1.894453E1,1.8287376E1,1.4052469E1,2.4438861E2,1.1310981E1,1.827365E2,5.2122593E1],"tree_param":{"num_deleted":"0","num_feature":"45","num_nodes":"15","size_leaf_vector":"1"}},{"base_weights":[2.8079001E-2,1.2813628E-1,-8.84427E-2,1.041904E-1,7.116964E-2,-6.0556866E-2,-6.237263E-2,6.988816E-3,3.343373E-2,4.5996945E-2,-9.504493E-3],"categories":[],"categories_nodes":[],"categories_segments":[],"categories_sizes":[],"default_left":[0,0,0,0,0,0,0,0,0,0,0],"id":75,"left_children":[1,3,5,7,-1,-1,9,-1,-1,-1,-1],"loss_changes":[6.5840425E0,4.207772E0,3.4993641E0,2.296547E0,0E0,0E0,4.27134E0,0E0,0E0,0E0,0E0],"parents":[2147483647,0,0,1,1,2,2,3,3,6,6],"right_children":[2,4,6,8,-1,-1,10,-1,-1,-1,-1],"split_conditions":[1.27055E3,9.55E1,1.4142E3,1E0,7.116964E-2,-6.0556866E-2,1.5931E3,6.988816E-3,3.343373E-2,4.5996945E-2,-9.504493E-3],"split_indices":[1,0,1,29,0,0,1,0,0,0,0],"split_type":[0,0,0,0,0,0,0,0,0,0,0],"sum_hessian":[5.637391E2,3.0327054E2,2.604685E2,2.9188266E2,1.1387882E1,1.1967472E1,2.4850105E2,2.5458925E2,3.7293415E1,1.4243691E1,2.3425735E2],"tree_param":{"num_deleted":"0","num_feature":"45","num_nodes":"11","size_leaf_vector":"1"}},{"base_weights":[-4.9483893E-3,9.978799E-2,-3.5004016E-2,-1.0256819E-2,3.5366768E-1,-9.458327E-2,-2.1031205E-2,-2.9964894E-2,4.1145063E-3,1.820269E-2,7.4774675E-2,2.1233765E-2,-3.8763713E-3],"categories":[],"categories_nodes":[],"categories_segments":[],"categories_sizes":[],"default_left":[0,0,0,0,0,0,0,0,0,0,0,0,0],"id":76,"left_children":[1,3,5,7,9,-1,11,-1,-1,-1,-1,-1,-1],"loss_changes":[1.7933092E0,3.5508628E0,5.6228747E0,1.3316398E0,2.5311217E0,0E0,1.8101077E0,0E0,0E0,0E0,0E0,0E0,0E0],"parents":[2147483647,0,0,1,1,2,2,3,3,4,4,6,6],"right_children":[2,4,6,8,10,-1,12,-1,-1,-1,-1,-1,-1],"split_conditions":[4.965E1,1E0,5.015E1,1.975E1,4.505E1,-9.458327E-2,5.53E1,-2.9964894E-2,4.1145063E-3,1.820269E-2,7.4774675E-2,2.1233765E-2,-3.8763713E-3],"split_indices":[0,43,0,0,0,0,0,0,0,0,0,0,0],"split_type":[0,0,0,0,0,0,0,0,0,0,0,0,0],"sum_hessian":[5.6862634E2,1.26532394E2,4.4209393E2,8.860579E1,3.7926605E1,6.1757736E0,4.3591815E2,1.3000172E1,7.560561E1,2.6928762E1,1.0997844E1,3.039657E1,4.055216E2],"tree_param":{"num_deleted":"0","num_feature":"45","num_nodes":"13","size_leaf_vector":"1"}},{"base_weights":[-1.7254988E-2,-5.5615097E-2,2.1479894E-1,6.691301E-3,-1.9688594E-1,8.488E-2,4.4124526E-1,1.3303826E-2,-1.004474E-2,-3.3399645E-2,-5.046574E-3,-9.629088E-3,4.285209E-2,6.255807E-2,-1.4914033E-2],"categories":[],"categories_nodes":[],"categories_segments":[],"categories_sizes":[],"default_left":[0,0,0,0,0,0,0,0,0,0,0,0,0,0,0],"id":77,"left_children":[1,3,5,7,9,11,13,-1,-1,-1,-1,-1,-1,-1,-1],"loss_changes":[5.0794573E0,4.309246E0,2.3629231E0,4.6113877E0,2.999536E0,3.261779E0,3.2455869E0,0E0,0E0,0E0,0E0,0E0,0E0,0E0,0E0],"parents":[2147483647,0,0,1,1,2,2,3,3,4,4,5,5,6,6],"right_children":[2,4,6,8,10,12,14,-1,-1,-1,-1,-1,-1,-1,-1],"split_conditions":[1E0,1E0,1E0,1E0,1E0,1E0,1E0,1.3303826E-2,-1.004474E-2,-3.3399645E-2,-5.046574E-3,-9.629088E-3,4.285209E-2,6.255807E-2,-1.4914033E-2],"split_indices":[37,23,43,12,33,15,15,0,0,0,0,0,0,0,0],"split_type":[0,0,0,0,0,0,0,0,0,0,0,0,0,0,0],"sum_hessian":[5.69451E2,4.889966E2,8.045434E1,3.3966595E2,1.4933069E2,5.1560165E1,2.8894173E1,1.558058E2,1.8386014E2,7.678619E1,7.2544495E1,3.3996677E1,1.7563488E1,2.1996443E1,6.8977304E0],"tree_param":{"num_deleted":"0","num_feature":"45","num_nodes":"15","size_leaf_vector":"1"}},{"base_weights":[-3.8734026E-2,4.3979336E-2,-1.328009E-1,-7.096506E-2,1.3750346E-1,-1.7368189E-1,5.8004344E-3,1.1260866E-2,-1.9192547E-2,4.024003E-2,5.8762287E-3,8.306671E-3,-2.1180479E-2,1.1487375E-2,-6.1182585E-2],"categories":[],"categories_nodes":[],"categories_segments":[],"categories_sizes":[],"default_left":[0,0,0,0,0,0,0,0,0,0,0,0,0,0,0],"id":78,"left_children":[1,3,5,7,9,11,13,-1,-1,-1,-1,-1,-1,-1,-1],"loss_changes":[4.4037123E0,3.2443533E0,1.5007176E0,3.0200555E0,3.4574122E0,2.010219E0,4.1303773E0,0E0,0E0,0E0,0E0,0E0,0E0,0E0,0E0],"parents":[2147483647,0,0,1,1,2,2,3,3,4,4,5,5,6,6],"right_children":[2,4,6,8,10,12,14,-1,-1,-1,-1,-1,-1,-1,-1],"split_conditions":[1E0,8.43E1,1E0,1E0,9.025E1,2.03E1,8.985E1,1.1260866E-2,-1.9192547E-2,4.024003E-2,5.8762287E-3,8.306671E-3,-2.1180479E-2,1.1487375E-2,-6.1182585E-2],"split_indices":[12,0,7,11,0,0,0,0,0,0,0,0,0,0,0],"split_type":[0,0,0,0,0,0,0,0,0,0,0,0,0,0,0],"sum_hessian":[5.6511176E2,3.008444E2,2.642674E2,1.3502032E2,1.6582407E2,2.0397705E2,6.0290344E1,5.364354E1,8.137678E1,3.752597E1,1.282981E2,2.6295273E1,1.7768178E2,5.1587032E1,8.703309E0],"tree_param":{"num_deleted":"0","num_feature":"45","num_nodes":"15","size_leaf_vector":"1"}},{"base_weights":[1.1048229E-2,-1.9208261E-1,3.198933E-2,-2.9715318E-2,-4.5626405E-1,6.8000965E-2,1.6725948E-2,3.1010142E-2,-2.5029508E-2,-1.0068341E-1,-1.065459E-2,-2.3416186E-2,4.0472075E-3],"categories":[],"categories_nodes":[],"categories_segments":[],"categories_sizes":[],"default_left":[0,0,0,0,0,0,0,0,0,0,0,0,0],"id":79,"left_children":[1,3,5,7,9,-1,11,-1,-1,-1,-1,-1,-1],"loss_changes":[2.3744395E0,2.2310708E0,4.997185E0,2.5008974E0,3.7634172E0,0E0,2.9518185E0,0E0,0E0,0E0,0E0,0E0,0E0],"parents":[2147483647,0,0,1,1,2,2,3,3,4,4,6,6],"right_children":[2,4,6,8,10,-1,12,-1,-1,-1,-1,-1,-1],"split_conditions":[5.5E1,4.02E1,7.005E1,1E0,4.505E1,6.8000965E-2,3.625E1,3.1010142E-2,-2.5029508E-2,-1.0068341E-1,-1.065459E-2,-2.3416186E-2,4.0472075E-3],"split_indices":[1,1,1,39,0,0,0,0,0,0,0,0,0],"split_type":[0,0,0,0,0,0,0,0,0,0,0,0,0],"sum_hessian":[5.569725E2,5.167111E1,5.053014E2,3.234682E1,1.9324286E1,1.1126815E1,4.9417456E2,1.265228E1,1.9694542E1,7.1415973E0,1.218269E1,4.2345547E1,4.5182904E2],"tree_param":{"num_deleted":"0","num_feature":"45","num_nodes":"13","size_leaf_vector":"1"}},{"base_weights":[-2.3749504E-2,9.2522785E-2,-6.897307E-2,4.556645E-2,4.4408068E-1,-1.24581605E-1,1.0348566E-1,-5.2727167E-3,1.6715271E-2,9.4859146E-2,1.3478816E-2,-9.282496E-3,-3.2190394E-2,4.1376416E-2,2.6549061E-3],"categories":[],"categories_nodes":[],"categories_segments":[],"categories_sizes":[],"default_left":[0,0,0,0,0,0,0,0,0,0,0,0,0,0,0],"id":80,"left_children":[1,3,5,7,9,11,13,-1,-1,-1,-1,-1,-1,-1,-1],"loss_changes":[2.9190917E0,2.5568652E0,3.8380861E0,1.6505029E0,2.7862027E0,1.8796573E0,2.326553E0,0E0,0E0,0E0,0E0,0E0,0E0,0E0,0E0],"parents":[2147483647,0,0,1,1,2,2,3,3,4,4,5,5,6,6],"right_children":[2,4,6,8,10,12,14,-1,-1,-1,-1,-1,-1,-1,-1],"split_conditions":[5.445E1,1E0,9.825E1,1.763E2,6.0965E2,1E0,2.58595E3,-5.2727167E-3,1.6715271E-2,9.4859146E-2,1.3478816E-2,-9.282496E-3,-3.2190394E-2,4.1376416E-2,2.6549061E-3],"split_indices":[0,26,0,1,1,44,1,0,0,0,0,0,0,0,0],"split_type":[0,0,0,0,0,0,0,0,0,0,0,0,0,0,0],"sum_hessian":[5.540385E2,1.5500056E2,3.9903793E2,1.3723534E2,1.7765226E1,3.018474E2,9.719051E1,7.604316E1,6.1192173E1,6.359033E0,1.1406194E1,2.6063635E2,4.1211063E1,1.8876057E1,7.831446E1],"tree_param":{"num_deleted":"0","num_feature":"45","num_nodes":"15","size_leaf_vector":"1"}},{"base_weights":[-3.6451507E-3,-2.8506752E-2,2.9706363E-2,-4.9762428E-2,7.752238E-2,-1.1809652E-1,9.34668E-2,-9.989004E-4,-2.895444E-2,2.1089945E-2,-5.4156955E-2,-2.0435398E-2,1.575699E-2,1.716768E-2,-8.153416E-3],"categories":[],"categories_nodes":[],"categories_segments":[],"categories_sizes":[],"default_left":[0,0,0,0,0,0,0,0,0,0,0,0,0,0,0],"id":81,"left_children":[1,3,5,7,9,11,13,-1,-1,-1,-1,-1,-1,-1,-1],"loss_changes":[4.7951162E-1,7.4854994E-1,2.3333101E0,2.633291E0,4.6413403E0,1.7914664E0,2.3726835E0,0E0,0E0,0E0,0E0,0E0,0E0,0E0,0E0],"parents":[2147483647,0,0,1,1,2,2,3,3,4,4,5,5,6,6],"right_children":[2,4,6,8,10,12,14,-1,-1,-1,-1,-1,-1,-1,-1],"split_conditions":[1E0,1E0,1E0,1E0,1E0,1E0,1E0,-9.989004E-4,-2.895444E-2,2.1089945E-2,-5.4156955E-2,-2.0435398E-2,1.575699E-2,1.716768E-2,-8.153416E-3],"split_indices":[35,29,27,42,41,42,12,0,0,0,0,0,0,0,0],"split_type":[0,0,0,0,0,0,0,0,0,0,0,0,0,0,0],"sum_hessian":[5.772911E2,3.3078375E2,2.4650731E2,2.757662E2,5.5017555E1,7.416336E1,1.7234395E2,2.3697862E2,3.878759E1,4.5536785E1,9.480768E0,5.6586494E1,1.757686E1,1.1911815E2,5.3225807E1],"tree_param":{"num_deleted":"0","num_feature":"45","num_nodes":"15","size_leaf_vector":"1"}},{"base_weights":[-4.475591E-2,4.326804E-2,-1.6403687E-1,-4.7996942E-2,9.222417E-2,-2.301979E-1,2.8291866E-2,-7.940512E-4,-6.221028E-2,6.711904E-3,5.6626994E-2,-4.9749378E-2,-1.8306812E-2,-1.596569E-2,2.0926319E-2],"categories":[],"categories_nodes":[],"categories_segments":[],"categories_sizes":[],"default_left":[0,0,0,0,0,0,0,0,0,0,0,0,0,0,0],"id":82,"left_children":[1,3,5,7,9,11,13,-1,-1,-1,-1,-1,-1,-1,-1],"loss_changes":[5.999124E0,1.4720001E0,3.0898786E0,2.6462908E0,2.5311344E0,2.2288113E0,2.1436138E0,0E0,0E0,0E0,0E0,0E0,0E0,0E0,0E0],"parents":[2147483647,0,0,1,1,2,2,3,3,4,4,5,5,6,6],"right_children":[2,4,6,8,10,12,14,-1,-1,-1,-1,-1,-1,-1,-1],"split_conditions":[1.5615E3,1E0,1E0,1.27055E3,1.4142E3,1E0,1E0,-7.940512E-4,-6.221028E-2,6.711904E-3,5.6626994E-2,-4.9749378E-2,-1.8306812E-2,-1.596569E-2,2.0926319E-2],"split_indices":[1,40,37,1,1,16,3,0,0,0,0,0,0,0,0],"split_type":[0,0,0,0,0,0,0,0,0,0,0,0,0,0,0],"sum_hessian":[5.7052997E2,3.2846E2,2.4206998E2,1.1468038E2,2.137796E2,1.8003836E2,6.203161E1,1.0767464E2,7.005744E0,2.0356949E2,1.0210105E1,2.6270073E1,1.537683E2,3.0458084E1,3.1573523E1],"tree_param":{"num_deleted":"0","num_feature":"45","num_nodes":"15","size_leaf_vector":"1"}},{"base_weights":[-3.080049E-2,1.7076781E-1,-6.4373985E-2,3.342758E-1,1.1124098E-1,-1.15953006E-1,1.0119177E-1,7.343658E-2,1.1463221E-2,-9.575843E-3,1.8938167E-2,-5.071167E-2,-9.385456E-3,-7.5210966E-3,2.7635902E-2],"categories":[],"categories_nodes":[],"categories_segments":[],"categories_sizes":[],"default_left":[0,0,0,0,0,0,0,0,0,0,0,0,0,0,0],"id":83,"left_children":[1,3,5,7,9,11,13,-1,-1,-1,-1,-1,-1,-1,-1],"loss_changes":[3.833992E0,7.6893044E-1,4.1503515E0,1.8336952E0,9.806424E-1,3.1768775E0,3.5807657E0,0E0,0E0,0E0,0E0,0E0,0E0,0E0,0E0],"parents":[2147483647,0,0,1,1,2,2,3,3,4,4,5,5,6,6],"right_children":[2,4,6,8,10,12,14,-1,-1,-1,-1,-1,-1,-1,-1],"split_conditions":[8.215E1,2.425E1,1E0,1E0,4.53E1,1.371E2,2.15795E3,7.343658E-2,1.1463221E-2,-9.575843E-3,1.8938167E-2,-5.071167E-2,-9.385456E-3,-7.5210966E-3,2.7635902E-2],"split_indices":[1,1,9,39,1,1,1,0,0,0,0,0,0,0,0],"split_type":[0,0,0,0,0,0,0,0,0,0,0,0,0,0,0],"sum_hessian":[5.652303E2,8.041173E1,4.8481857E2,2.0845537E1,5.956619E1,3.6977246E2,1.1504612E2,6.972718E0,1.3872819E1,1.629281E1,4.327338E1,1.9186096E1,3.5058636E2,5.746307E1,5.7583046E1],"tree_param":{"num_deleted":"0","num_feature":"45","num_nodes":"15","size_leaf_vector":"1"}},{"base_weights":[-2.4430943E-3,7.681676E-2,-4.0143516E-2,2.2648178E-1,-2.122519E-2,-8.353442E-3,-2.130311E-1,3.59477E-2,-6.917983E-3,-1.311895E-2,2.2956919E-2,-1.887814E-2,5.9343646E-3,-5.4351218E-2,